{"learner":{"attributes":{"scikit_learn":"{\"_estimator_type\": \"classifier\"}"},"feature_names":["person_age","person_income","person_emp_length","loan_amnt","loan_int_rate","loan_percent_income","cb_person_cred_hist_length","Type","MORTGAGE","OTHER","OWN","RENT","DEBTCONSOLIDATION","EDUCATION","HOMEIMPROVEMENT","MEDICAL","PERSONAL","VENTURE","N","Y","loan_grade","loan_int_rate_month","est_payback_time_in_month","avg_income_by_age","avg_income_by_emp","income_diff_avg_age","income_diff_avg_emp","risk_flag"],"feature_types":["float","float","float","float","float","float","float","float","float","float","float","float","float","float","float","float","float","float","float","float","float","float","float","float","float","float","float","float"],"gradient_booster":{"model":{"gbtree_model_param":{"num_parallel_tree":"1","num_trees":"1028"},"iteration_indptr":[0,1,2,3,4,5,6,7,8,9,10,11,12,13,14,15,16,17,18,19,20,21,22,23,24,25,26,27,28,29,30,31,32,33,34,35,36,37,38,39,40,41,42,43,44,45,46,47,48,49,50,51,52,53,54,55,56,57,58,59,60,61,62,63,64,65,66,67,68,69,70,71,72,73,74,75,76,77,78,79,80,81,82,83,84,85,86,87,88,89,90,91,92,93,94,95,96,97,98,99,100,101,102,103,104,105,106,107,108,109,110,111,112,113,114,115,116,117,118,119,120,121,122,123,124,125,126,127,128,129,130,131,132,133,134,135,136,137,138,139,140,141,142,143,144,145,146,147,148,149,150,151,152,153,154,155,156,157,158,159,160,161,162,163,164,165,166,167,168,169,170,171,172,173,174,175,176,177,178,179,180,181,182,183,184,185,186,187,188,189,190,191,192,193,194,195,196,197,198,199,200,201,202,203,204,205,206,207,208,209,210,211,212,213,214,215,216,217,218,219,220,221,222,223,224,225,226,227,228,229,230,231,232,233,234,235,236,237,238,239,240,241,242,243,244,245,246,247,248,249,250,251,252,253,254,255,256,257,258,259,260,261,262,263,264,265,266,267,268,269,270,271,272,273,274,275,276,277,278,279,280,281,282,283,284,285,286,287,288,289,290,291,292,293,294,295,296,297,298,299,300,301,302,303,304,305,306,307,308,309,310,311,312,313,314,315,316,317,318,319,320,321,322,323,324,325,326,327,328,329,330,331,332,333,334,335,336,337,338,339,340,341,342,343,344,345,346,347,348,349,350,351,352,353,354,355,356,357,358,359,360,361,362,363,364,365,366,367,368,369,370,371,372,373,374,375,376,377,378,379,380,381,382,383,384,385,386,387,388,389,390,391,392,393,394,395,396,397,398,399,400,401,402,403,404,405,406,407,408,409,410,411,412,413,414,415,416,417,418,419,420,421,422,423,424,425,426,427,428,429,430,431,432,433,434,435,436,437,438,439,440,441,442,443,444,445,446,447,448,449,450,451,452,453,454,455,456,457,458,459,460,461,462,463,464,465,466,467,468,469,470,471,472,473,474,475,476,477,478,479,480,481,482,483,484,485,486,487,488,489,490,491,492,493,494,495,496,497,498,499,500,501,502,503,504,505,506,507,508,509,510,511,512,513,514,515,516,517,518,519,520,521,522,523,524,525,526,527,528,529,530,531,532,533,534,535,536,537,538,539,540,541,542,543,544,545,546,547,548,549,550,551,552,553,554,555,556,557,558,559,560,561,562,563,564,565,566,567,568,569,570,571,572,573,574,575,576,577,578,579,580,581,582,583,584,585,586,587,588,589,590,591,592,593,594,595,596,597,598,599,600,601,602,603,604,605,606,607,608,609,610,611,612,613,614,615,616,617,618,619,620,621,622,623,624,625,626,627,628,629,630,631,632,633,634,635,636,637,638,639,640,641,642,643,644,645,646,647,648,649,650,651,652,653,654,655,656,657,658,659,660,661,662,663,664,665,666,667,668,669,670,671,672,673,674,675,676,677,678,679,680,681,682,683,684,685,686,687,688,689,690,691,692,693,694,695,696,697,698,699,700,701,702,703,704,705,706,707,708,709,710,711,712,713,714,715,716,717,718,719,720,721,722,723,724,725,726,727,728,729,730,731,732,733,734,735,736,737,738,739,740,741,742,743,744,745,746,747,748,749,750,751,752,753,754,755,756,757,758,759,760,761,762,763,764,765,766,767,768,769,770,771,772,773,774,775,776,777,778,779,780,781,782,783,784,785,786,787,788,789,790,791,792,793,794,795,796,797,798,799,800,801,802,803,804,805,806,807,808,809,810,811,812,813,814,815,816,817,818,819,820,821,822,823,824,825,826,827,828,829,830,831,832,833,834,835,836,837,838,839,840,841,842,843,844,845,846,847,848,849,850,851,852,853,854,855,856,857,858,859,860,861,862,863,864,865,866,867,868,869,870,871,872,873,874,875,876,877,878,879,880,881,882,883,884,885,886,887,888,889,890,891,892,893,894,895,896,897,898,899,900,901,902,903,904,905,906,907,908,909,910,911,912,913,914,915,916,917,918,919,920,921,922,923,924,925,926,927,928,929,930,931,932,933,934,935,936,937,938,939,940,941,942,943,944,945,946,947,948,949,950,951,952,953,954,955,956,957,958,959,960,961,962,963,964,965,966,967,968,969,970,971,972,973,974,975,976,977,978,979,980,981,982,983,984,985,986,987,988,989,990,991,992,993,994,995,996,997,998,999,1000,1001,1002,1003,1004,1005,1006,1007,1008,1009,1010,1011,1012,1013,1014,1015,1016,1017,1018,1019,1020,1021,1022,1023,1024,1025,1026,1027,1028],"tree_info":[0,0,0,0,0,0,0,0,0,0,0,0,0,0,0,0,0,0,0,0,0,0,0,0,0,0,0,0,0,0,0,0,0,0,0,0,0,0,0,0,0,0,0,0,0,0,0,0,0,0,0,0,0,0,0,0,0,0,0,0,0,0,0,0,0,0,0,0,0,0,0,0,0,0,0,0,0,0,0,0,0,0,0,0,0,0,0,0,0,0,0,0,0,0,0,0,0,0,0,0,0,0,0,0,0,0,0,0,0,0,0,0,0,0,0,0,0,0,0,0,0,0,0,0,0,0,0,0,0,0,0,0,0,0,0,0,0,0,0,0,0,0,0,0,0,0,0,0,0,0,0,0,0,0,0,0,0,0,0,0,0,0,0,0,0,0,0,0,0,0,0,0,0,0,0,0,0,0,0,0,0,0,0,0,0,0,0,0,0,0,0,0,0,0,0,0,0,0,0,0,0,0,0,0,0,0,0,0,0,0,0,0,0,0,0,0,0,0,0,0,0,0,0,0,0,0,0,0,0,0,0,0,0,0,0,0,0,0,0,0,0,0,0,0,0,0,0,0,0,0,0,0,0,0,0,0,0,0,0,0,0,0,0,0,0,0,0,0,0,0,0,0,0,0,0,0,0,0,0,0,0,0,0,0,0,0,0,0,0,0,0,0,0,0,0,0,0,0,0,0,0,0,0,0,0,0,0,0,0,0,0,0,0,0,0,0,0,0,0,0,0,0,0,0,0,0,0,0,0,0,0,0,0,0,0,0,0,0,0,0,0,0,0,0,0,0,0,0,0,0,0,0,0,0,0,0,0,0,0,0,0,0,0,0,0,0,0,0,0,0,0,0,0,0,0,0,0,0,0,0,0,0,0,0,0,0,0,0,0,0,0,0,0,0,0,0,0,0,0,0,0,0,0,0,0,0,0,0,0,0,0,0,0,0,0,0,0,0,0,0,0,0,0,0,0,0,0,0,0,0,0,0,0,0,0,0,0,0,0,0,0,0,0,0,0,0,0,0,0,0,0,0,0,0,0,0,0,0,0,0,0,0,0,0,0,0,0,0,0,0,0,0,0,0,0,0,0,0,0,0,0,0,0,0,0,0,0,0,0,0,0,0,0,0,0,0,0,0,0,0,0,0,0,0,0,0,0,0,0,0,0,0,0,0,0,0,0,0,0,0,0,0,0,0,0,0,0,0,0,0,0,0,0,0,0,0,0,0,0,0,0,0,0,0,0,0,0,0,0,0,0,0,0,0,0,0,0,0,0,0,0,0,0,0,0,0,0,0,0,0,0,0,0,0,0,0,0,0,0,0,0,0,0,0,0,0,0,0,0,0,0,0,0,0,0,0,0,0,0,0,0,0,0,0,0,0,0,0,0,0,0,0,0,0,0,0,0,0,0,0,0,0,0,0,0,0,0,0,0,0,0,0,0,0,0,0,0,0,0,0,0,0,0,0,0,0,0,0,0,0,0,0,0,0,0,0,0,0,0,0,0,0,0,0,0,0,0,0,0,0,0,0,0,0,0,0,0,0,0,0,0,0,0,0,0,0,0,0,0,0,0,0,0,0,0,0,0,0,0,0,0,0,0,0,0,0,0,0,0,0,0,0,0,0,0,0,0,0,0,0,0,0,0,0,0,0,0,0,0,0,0,0,0,0,0,0,0,0,0,0,0,0,0,0,0,0,0,0,0,0,0,0,0,0,0,0,0,0,0,0,0,0,0,0,0,0,0,0,0,0,0,0,0,0,0,0,0,0,0,0,0,0,0,0,0,0,0,0,0,0,0,0,0,0,0,0,0,0,0,0,0,0,0,0,0,0,0,0,0,0,0,0,0,0,0,0,0,0,0,0,0,0,0,0,0,0,0,0,0,0,0,0,0,0,0,0,0,0,0,0,0,0,0,0,0,0,0,0,0,0,0,0,0,0,0,0,0,0,0,0,0,0,0,0,0,0,0,0,0,0,0,0,0,0,0,0,0,0,0,0,0,0,0,0,0,0,0,0,0,0,0,0,0,0,0,0,0,0,0,0,0,0,0,0,0,0,0,0,0,0,0,0,0,0,0,0,0,0,0,0,0,0,0,0,0,0,0,0,0,0,0,0,0,0,0,0,0,0,0,0,0,0,0,0,0,0,0,0,0,0,0,0,0,0,0,0,0,0,0,0,0,0,0,0,0,0,0,0,0,0,0,0,0,0,0,0,0,0,0,0,0,0,0,0,0,0,0,0,0,0,0,0,0,0,0,0,0,0,0,0,0,0,0,0,0,0,0,0,0,0,0,0,0,0,0,0,0,0,0,0,0,0,0,0,0,0,0,0],"trees":[{"base_weights":[-2.4875404E-1,-5.772596E-1,2.9410222E0,-9.236793E-1,2.1036553E0,-1.361699E-1,3.192222E-1,2.0753782E0,-9.5661086E-1,3.408934E0,1.28871E0,-4.9229562E-1,1.3129109E0,-2.7848405E-1,2.5026968E-1,-4.9743006E-1,-1.0130959E0,8.2660115E-1,3.118316E-1,7.339686E-1,2.8110513E-1,6.49662E-2,-6.154305E-1,1.0419362E-1,3.7500706E-2,-3.2095306E-2,-0E0,-5.8335334E-1,6.2041515E-1,-1.0270427E0,3.1487843E-1,3.0943227E-1,1.7670399E-1,-1.0484959E-1,2.4884915E-1,-7.600993E-1,-5.2369568E-3,-5.4370176E-2,-2.3500204E-2,-0E0,5.9445947E-2,-7.8104295E-2,-6.105533E-2,-5.302586E-2,1.7326802E-1,-1.7055858E-2,1.6451319E-1,3.014119E-2,-3.597267E-2,-8.252042E-3,-5.6893617E-2,1.5384446E-2,-1.3800417E-2],"categories":[],"categories_nodes":[],"categories_segments":[],"categories_sizes":[],"default_left":[0,0,0,0,0,0,0,0,0,0,0,0,0,0,0,0,0,0,0,0,0,0,0,0,0,0,0,0,0,0,0,0,0,0,0,0,0,0,0,0,0,0,0,0,0,0,0,0,0,0,0,0,0],"id":0,"left_children":[1,3,5,7,9,11,-1,13,15,17,19,21,23,25,-1,27,29,31,-1,33,-1,-1,35,-1,-1,-1,-1,37,39,41,43,45,-1,47,-1,49,51,-1,-1,-1,-1,-1,-1,-1,-1,-1,-1,-1,-1,-1,-1,-1,-1],"loss_changes":[1.4152376E4,1.138937E4,6.2600303E3,1.0940684E3,1.435979E3,2.3639072E2,0E0,4.413172E2,2.7096387E2,1.3745317E3,1.293392E3,7.0492065E1,5.939331E-1,2.8107657E0,0E0,1.1973599E2,1.8144434E2,1.343327E2,0E0,1.7763348E3,0E0,0E0,2.9625137E1,0E0,0E0,0E0,0E0,4.9255676E1,1.2033409E1,1.1437988E2,2.7265515E2,1.6908475E2,0E0,1.3109569E2,0E0,7.0150757E0,3.913907E0,0E0,0E0,0E0,0E0,0E0,0E0,0E0,0E0,0E0,0E0,0E0,0E0,0E0,0E0,0E0,0E0],"parents":[2147483647,0,0,1,1,2,2,3,3,4,4,5,5,7,7,8,8,9,9,10,10,11,11,12,12,13,13,15,15,16,16,17,17,19,19,22,22,27,27,28,28,29,29,30,30,31,31,33,33,35,35,36,36],"right_children":[2,4,6,8,10,12,-1,14,16,18,20,22,24,26,-1,28,30,32,-1,34,-1,-1,36,-1,-1,-1,-1,38,40,42,44,46,-1,48,-1,50,52,-1,-1,-1,-1,-1,-1,-1,-1,-1,-1,-1,-1,-1,-1,-1,-1],"split_conditions":[1.514522E0,1.7125311E0,9.6669275E-1,-1.0378102E0,-4.375197E-1,1.7125311E0,3.192222E-1,-2.907753E-2,-6.912498E-1,9.6669275E-1,2.319327E0,-1.6694184E-1,1.8711274E-3,-1.1117431E0,2.5026968E-1,-7.143538E-1,9.936233E-2,2.0863435E0,3.118316E-1,2.0863435E0,2.8110513E-1,6.49662E-2,7.9938495E-1,1.0419362E-1,3.7500706E-2,-3.2095306E-2,-0E0,9.676663E-2,9.281357E-3,1.0641571E-1,-1.0581439E0,2.319327E0,1.7670399E-1,-1.13649026E-1,2.4884915E-1,-8.0676997E-1,-1.8487409E-1,-5.4370176E-2,-2.3500204E-2,-0E0,5.9445947E-2,-7.8104295E-2,-6.105533E-2,-5.302586E-2,1.7326802E-1,-1.7055858E-2,1.6451319E-1,3.014119E-2,-3.597267E-2,-8.252042E-3,-5.6893617E-2,1.5384446E-2,-1.3800417E-2],"split_indices":[5,20,11,1,2,20,0,5,1,11,12,3,1,1,0,1,22,15,0,15,0,0,20,0,0,0,0,4,22,4,5,12,0,1,0,1,2,0,0,0,0,0,0,0,0,0,0,0,0,0,0,0,0],"split_type":[0,0,0,0,0,0,0,0,0,0,0,0,0,0,0,0,0,0,0,0,0,0,0,0,0,0,0,0,0,0,0,0,0,0,0,0,0,0,0,0,0,0,0,0,0,0,0,0,0,0,0,0,0],"sum_hessian":[1.3476803E4,1.2227655E4,1.249148E3,1.0835733E4,1.391922E3,4.3263336E2,8.1651465E2,1.0927765E2,1.0726455E4,5.198565E2,8.720655E2,3.5419888E2,7.843449E1,4.5933094E1,6.3344555E1,1.1897832E3,9.536672E3,1.5537657E2,3.6447992E2,7.3725104E2,1.3481445E2,2.1391224E1,3.3280765E2,5.4224266E1,2.4210222E1,2.2883635E1,2.304946E1,1.1110171E3,7.8766136E1,9.440992E3,9.568013E1,1.3033723E2,2.5039341E1,5.765681E2,1.6068292E2,2.653175E2,6.749014E1,6.102303E2,5.007868E2,2.5370987E1,5.339515E1,6.0311646E3,3.4098274E3,6.881673E1,2.6863398E1,1.10438416E2,1.9898813E1,2.482377E2,3.283304E2,2.3878576E1,2.4143893E2,2.785834E1,3.96318E1],"tree_param":{"num_deleted":"0","num_feature":"28","num_nodes":"53","size_leaf_vector":"1"}},{"base_weights":[-2.3663008E-1,-5.515898E-1,2.4391234E0,-8.938889E-1,1.8117535E0,-1.2441686E-1,2.502216E-1,1.8115383E0,-9.27012E-1,2.804514E0,1.1439992E0,-4.678E-1,8.336127E-2,-2.678945E-1,2.0916168E-1,-4.7274804E-1,-9.841137E-1,7.7400887E-1,2.4630131E-1,6.6415125E-1,2.2784244E-1,5.440589E-2,-5.847348E-1,-3.1010982E-2,-0E0,-6.145079E-1,1.6238105E0,-9.9827975E-1,3.012481E-1,2.968389E-1,1.570602E-1,-9.823423E-2,2.042644E-1,-7.387345E-1,1.4919033E-2,-4.8293464E-2,2.4485368E-2,-0E0,2.0703356E-1,-7.620272E-2,-5.894242E-2,-5.1249288E-2,1.5380436E-1,-1.6126046E-2,1.4818256E-1,8.252614E-2,-1.7925186E-2,-7.5878543E-3,-5.5571508E-2,1.6227404E-2,-1.3768657E-2],"categories":[],"categories_nodes":[],"categories_segments":[],"categories_sizes":[],"default_left":[0,0,0,0,0,0,0,0,0,0,0,0,0,0,0,0,0,0,0,0,0,0,0,0,0,0,0,0,0,0,0,0,0,0,0,0,0,0,0,0,0,0,0,0,0,0,0,0,0,0,0],"id":1,"left_children":[1,3,5,7,9,11,-1,13,15,17,19,21,-1,23,-1,25,27,29,-1,31,-1,-1,33,-1,-1,35,37,39,41,43,-1,45,-1,47,49,-1,-1,-1,-1,-1,-1,-1,-1,-1,-1,-1,-1,-1,-1,-1,-1],"loss_changes":[1.1253E4,9.678774E3,4.0760645E3,9.547363E2,9.6143896E2,2.0480325E2,0E0,3.285936E2,2.6068164E2,8.244951E2,9.05453E2,5.7430344E1,0E0,2.6080956E0,0E0,3.6094458E2,1.7101562E2,1.0885035E2,0E0,1.3254065E3,0E0,0E0,3.184645E1,0E0,0E0,8.252075E1,1.6642908E2,1.1321387E2,2.3197743E2,1.446115E2,0E0,1.20219955E2,0E0,7.136734E0,4.1917415E0,0E0,0E0,0E0,0E0,0E0,0E0,0E0,0E0,0E0,0E0,0E0,0E0,0E0,0E0,0E0,0E0],"parents":[2147483647,0,0,1,1,2,2,3,3,4,4,5,5,7,7,8,8,9,9,10,10,11,11,13,13,15,15,16,16,17,17,19,19,22,22,25,25,26,26,27,27,28,28,29,29,31,31,33,33,34,34],"right_children":[2,4,6,8,10,12,-1,14,16,18,20,22,-1,24,-1,26,28,30,-1,32,-1,-1,34,-1,-1,36,38,40,42,44,-1,46,-1,48,50,-1,-1,-1,-1,-1,-1,-1,-1,-1,-1,-1,-1,-1,-1,-1,-1],"split_conditions":[1.514522E0,1.7125311E0,9.6669275E-1,-1.0378102E0,-4.375197E-1,1.7125311E0,2.502216E-1,-2.907753E-2,-6.912498E-1,9.6669275E-1,2.319327E0,-9.805934E-1,8.336127E-2,-1.1117431E0,2.0916168E-1,2.8582873E0,9.936233E-2,2.0863435E0,2.4630131E-1,2.0863435E0,2.2784244E-1,5.440589E-2,7.9938495E-1,-3.1010982E-2,-0E0,-7.143538E-1,9.6669275E-1,1.0641571E-1,-1.0581439E0,2.319327E0,1.570602E-1,-6.912498E-1,2.042644E-1,-8.0676997E-1,1.0660063E-1,-4.8293464E-2,2.4485368E-2,-0E0,2.0703356E-1,-7.620272E-2,-5.894242E-2,-5.1249288E-2,1.5380436E-1,-1.6126046E-2,1.4818256E-1,8.252614E-2,-1.7925186E-2,-7.5878543E-3,-5.5571508E-2,1.6227404E-2,-1.3768657E-2],"split_indices":[5,20,11,1,2,20,0,5,1,11,12,25,0,1,0,14,22,15,0,15,0,0,20,0,0,1,11,4,5,12,0,1,0,1,23,0,0,0,0,0,0,0,0,0,0,0,0,0,0,0,0],"split_type":[0,0,0,0,0,0,0,0,0,0,0,0,0,0,0,0,0,0,0,0,0,0,0,0,0,0,0,0,0,0,0,0,0,0,0,0,0,0,0,0,0,0,0,0,0,0,0,0,0,0,0],"sum_hessian":[1.3323726E4,1.1929427E4,1.3942985E3,1.0427086E4,1.5023414E3,4.2909247E2,9.65206E2,1.17959E2,1.0309127E4,5.88103E2,9.1423834E2,3.468574E2,8.223509E1,4.5507046E1,7.245195E1,1.1655585E3,9.143568E3,1.5873123E2,4.2937183E2,7.5771564E2,1.5652272E2,2.326932E1,3.2358807E2,2.2457586E1,2.304946E1,1.1001322E3,6.542627E1,9.047315E3,9.6253044E1,1.311364E2,2.7594835E1,5.740587E2,1.836569E2,2.5657925E2,6.7008804E1,1.0258203E3,7.4311775E1,3.488915E1,3.0537119E1,5.7581865E3,3.2891284E3,6.670076E1,2.9552279E1,1.09345535E2,2.1790857E1,5.3822834E1,5.202359E2,2.4375998E1,2.3220326E2,3.486919E1,3.2139618E1],"tree_param":{"num_deleted":"0","num_feature":"28","num_nodes":"51","size_leaf_vector":"1"}},{"base_weights":[-2.25097E-1,-5.686318E-1,1.7737134E0,4.8063973E-1,-7.604806E-1,8.6719537E-1,2.2678707E0,-6.374861E-2,2.0802321E0,-9.3645906E-1,-2.1154131E-1,4.1955543E-1,1.8690139E-1,2.3862627E0,1.2581788E0,2.0383763E0,-4.0208334E-1,-1.8251483E-1,2.634886E0,-5.0453544E-1,-9.8200387E-1,-9.3250495E-1,7.1333635E-1,-2.737764E-1,1.8548001E-1,2.4947991E0,1.1728075E-1,8.563358E-1,1.09043956E-1,1.0885495E-1,1.9064437E-1,-5.323164E-1,1.4059844E0,1.4827064E-1,-4.9089383E-2,1.9550781E-1,1.5603912E0,-7.287887E-1,1.09063484E-1,-1.0726376E0,-8.140103E-1,-9.734297E-1,7.6297894E-2,2.1089487E0,-2.4257897E-1,1.947807E-1,-5.516502E-1,1.8450685E-1,1.8242879E0,3.278997E-2,7.934967E-2,3.4318008E-2,-1.55275045E-2,-4.5421883E-2,1.5294408E-2,-7.9314335E-4,1.7762893E-1,-2.1076074E-2,3.1972095E-2,2.8413668E-2,1.501348E-1,-5.8877748E-2,2.0979222E-2,-7.588374E-2,-1.7967176E-2,-4.580346E-2,-6.611694E-2,-7.132637E-2,-4.5848045E-2,1.8723357E-1,8.1566535E-2,-4.8298668E-2,7.646941E-2,3.377761E-2,-3.520262E-2,-4.638165E-2,-3.9717782E-4,1.3350311E-1,4.510276E-2],"categories":[],"categories_nodes":[],"categories_segments":[],"categories_sizes":[],"default_left":[0,0,0,0,0,0,0,0,0,0,0,0,0,0,0,0,0,0,0,0,0,0,0,0,0,0,0,0,0,0,0,0,0,0,0,0,0,0,0,0,0,0,0,0,0,0,0,0,0,0,0,0,0,0,0,0,0,0,0,0,0,0,0,0,0,0,0,0,0,0,0,0,0,0,0,0,0,0,0],"id":2,"left_children":[1,3,5,7,9,11,13,15,17,19,21,23,-1,25,27,29,31,33,35,37,39,41,43,45,-1,47,-1,49,-1,51,-1,53,55,57,-1,-1,59,61,-1,63,65,67,-1,69,71,73,75,-1,77,-1,-1,-1,-1,-1,-1,-1,-1,-1,-1,-1,-1,-1,-1,-1,-1,-1,-1,-1,-1,-1,-1,-1,-1,-1,-1,-1,-1,-1,-1],"loss_changes":[9.019823E3,2.2602917E3,8.3634863E2,1.5175941E3,9.121221E2,5.466128E2,1.0841406E2,9.3871375E2,5.633071E2,1.3366895E2,1.5537665E3,8.980242E2,0E0,3.0624023E1,2.2979736E-1,2.335166E2,2.759275E2,1.8556808E1,1.8156738E0,3.4111893E2,8.62041E1,1.2076306E2,1.3708289E3,6.009632E1,0E0,2.2055664E1,0E0,2.157257E0,0E0,9.172059E0,0E0,9.4671814E1,1.2930362E2,1.124751E1,0E0,0E0,3.5527313E1,7.742847E1,0E0,2.665332E1,3.9101196E1,8.265137E0,0E0,1.799591E2,3.751325E2,3.7772087E1,1.6418625E1,0E0,1.0606079E0,0E0,0E0,0E0,0E0,0E0,0E0,0E0,0E0,0E0,0E0,0E0,0E0,0E0,0E0,0E0,0E0,0E0,0E0,0E0,0E0,0E0,0E0,0E0,0E0,0E0,0E0,0E0,0E0,0E0,0E0],"parents":[2147483647,0,0,1,1,2,2,3,3,4,4,5,5,6,6,7,7,8,8,9,9,10,10,11,11,13,13,14,14,15,15,16,16,17,17,18,18,19,19,20,20,21,21,22,22,23,23,25,25,27,27,29,29,31,31,32,32,33,33,36,36,37,37,39,39,40,40,41,41,43,43,44,44,45,45,46,46,48,48],"right_children":[2,4,6,8,10,12,14,16,18,20,22,24,-1,26,28,30,32,34,36,38,40,42,44,46,-1,48,-1,50,-1,52,-1,54,56,58,-1,-1,60,62,-1,64,66,68,-1,70,72,74,76,-1,78,-1,-1,-1,-1,-1,-1,-1,-1,-1,-1,-1,-1,-1,-1,-1,-1,-1,-1,-1,-1,-1,-1,-1,-1,-1,-1,-1,-1,-1,-1],"split_conditions":[1.7125311E0,-6.912498E-1,9.6669275E-1,-1.498377E-1,5.856401E-1,2.0863435E0,3.484316E-1,-1.0378102E0,9.6669275E-1,-5.777628E-1,9.6669275E-1,2.319327E0,1.8690139E-1,1.9678471E0,1.5605757E0,-1.1760858E0,2.8582873E0,3.9102736E0,-7.374579E-1,2.948698E-1,9.676663E-2,7.1473084E-2,-1.13649026E-1,-1.13649026E-1,1.8548001E-1,2.2096279E0,1.1728075E-1,4.386066E-2,1.09043956E-1,-1.1770543E0,1.9064437E-1,-3.7219146E-1,9.6669275E-1,-1.1376126E-1,-4.9089383E-2,1.9550781E-1,1.7514086E-1,-5.988337E-1,1.09063484E-1,8.9139275E-2,-1.13649026E-1,7.400388E-1,7.6297894E-2,-3.4764665E-1,1.9881791E0,3.9102736E0,1.9751214E0,1.8450685E-1,2.1285063E-1,3.278997E-2,7.934967E-2,3.4318008E-2,-1.55275045E-2,-4.5421883E-2,1.5294408E-2,-7.9314335E-4,1.7762893E-1,-2.1076074E-2,3.1972095E-2,2.8413668E-2,1.501348E-1,-5.8877748E-2,2.0979222E-2,-7.588374E-2,-1.7967176E-2,-4.580346E-2,-6.611694E-2,-7.132637E-2,-4.5848045E-2,1.8723357E-1,8.1566535E-2,-4.8298668E-2,7.646941E-2,3.377761E-2,-3.520262E-2,-4.638165E-2,-3.9717782E-4,1.3350311E-1,4.510276E-2],"split_indices":[20,1,11,3,3,15,1,1,11,1,11,12,0,13,3,3,14,10,1,3,4,22,1,1,0,16,0,22,0,25,0,3,11,20,0,0,3,1,0,22,1,4,0,1,3,10,4,0,26,0,0,0,0,0,0,0,0,0,0,0,0,0,0,0,0,0,0,0,0,0,0,0,0,0,0,0,0,0,0],"split_type":[0,0,0,0,0,0,0,0,0,0,0,0,0,0,0,0,0,0,0,0,0,0,0,0,0,0,0,0,0,0,0,0,0,0,0,0,0,0,0,0,0,0,0,0,0,0,0,0,0,0,0,0,0,0,0,0,0,0,0,0,0,0,0,0,0,0,0,0,0,0,0,0,0,0,0,0,0,0,0],"sum_hessian":[1.3107903E4,1.1193216E4,1.9146875E3,1.7266163E3,9.4666E3,6.8787756E2,1.2268099E3,1.2963328E3,4.3028354E2,7.160726E3,2.305873E3,5.6301636E2,1.248612E2,1.082527E3,1.4428302E2,1.709489E2,1.1253839E3,8.593881E1,3.4434473E2,6.989673E2,6.461759E3,1.2963334E3,1.0095398E3,4.3692587E2,1.26090454E2,9.125387E2,1.699883E2,8.2493065E1,6.1789948E1,4.8535683E1,1.22413216E2,1.0581842E3,6.719968E1,5.646367E1,2.947514E1,2.8400278E2,6.034197E1,6.3775964E2,6.1207634E1,4.1514507E3,2.310308E3,1.2771744E3,1.9158957E1,4.0492743E2,6.0461237E2,1.6265053E2,2.7427536E2,7.2856915E2,1.8396951E2,4.9094677E1,3.339839E1,2.127587E1,2.7259811E1,9.1987665E2,1.383076E2,3.4625042E1,3.2574635E1,2.1750864E1,3.4712807E1,2.7557547E1,3.2784424E1,5.7866205E2,5.909756E1,4.100065E3,5.1386005E1,1.061727E3,1.2485809E3,1.0986273E3,1.7854712E2,2.3991016E2,1.6501729E2,4.5792377E2,1.4668857E2,1.1886183E2,4.37887E1,2.247881E2,4.948725E1,1.6476588E2,1.9203619E1],"tree_param":{"num_deleted":"0","num_feature":"28","num_nodes":"79","size_leaf_vector":"1"}},{"base_weights":[-2.13444E-1,-5.088248E-1,1.9387512E0,-8.401122E-1,1.4192818E0,-1.0109623E-1,1.8908203E-1,1.4366462E0,-8.731328E-1,2.1866274E0,8.820843E-1,-5.721413E-1,6.464935E-1,-2.7341905E-1,1.6043383E-1,-4.2930964E-1,-9.3144786E-1,6.684612E-1,1.8630779E-1,4.943562E-1,1.7124662E-1,3.7498496E-2,-6.857435E-1,2.687671E-1,1.34872E-1,-3.0598195E-2,-0E0,-5.657593E-1,1.3431337E0,-9.462027E-1,3.118354E-1,9.971812E-1,-3.0825904E-2,2.4572505E-1,1.6373655E-1,-7.177456E-3,-5.1745407E-2,4.714916E-1,-1.8359164E-2,-4.4872772E-2,2.4319923E-2,-0E0,1.6069812E-1,-7.281168E-2,-5.5081323E-2,-4.8273332E-2,1.3743192E-1,9.140836E-2,-1.3338068E-2,5.633184E-2,-2.8002793E-2,1.2529587E-3,5.624505E-2],"categories":[],"categories_nodes":[],"categories_segments":[],"categories_sizes":[],"default_left":[0,0,0,0,0,0,0,0,0,0,0,0,0,0,0,0,0,0,0,0,0,0,0,0,0,0,0,0,0,0,0,0,0,0,0,0,0,0,0,0,0,0,0,0,0,0,0,0,0,0,0,0,0],"id":3,"left_children":[1,3,5,7,9,11,-1,13,15,17,19,21,23,25,-1,27,29,31,-1,33,-1,-1,35,37,-1,-1,-1,39,41,43,45,47,-1,49,-1,-1,-1,51,-1,-1,-1,-1,-1,-1,-1,-1,-1,-1,-1,-1,-1,-1,-1],"loss_changes":[8.20121E3,7.256817E3,2.409919E3,7.425825E2,6.6081323E2,1.5670471E2,0E0,2.1687845E2,2.4111621E2,4.5823462E2,5.8791956E2,3.882067E1,7.454316E1,2.2116337E0,0E0,2.825509E2,1.5886035E2,7.01178E1,0E0,3.6448346E2,0E0,0E0,5.934059E0,1.753218E1,0E0,0E0,0E0,7.462424E1,1.06588745E2,1.1162744E2,1.9395403E2,5.514235E1,0E0,2.681105E2,0E0,0E0,0E0,1.5826702E1,0E0,0E0,0E0,0E0,0E0,0E0,0E0,0E0,0E0,0E0,0E0,0E0,0E0,0E0,0E0],"parents":[2147483647,0,0,1,1,2,2,3,3,4,4,5,5,7,7,8,8,9,9,10,10,11,11,12,12,13,13,15,15,16,16,17,17,19,19,22,22,23,23,27,27,28,28,29,29,30,30,31,31,33,33,37,37],"right_children":[2,4,6,8,10,12,-1,14,16,18,20,22,24,26,-1,28,30,32,-1,34,-1,-1,36,38,-1,-1,-1,40,42,44,46,48,-1,50,-1,-1,-1,52,-1,-1,-1,-1,-1,-1,-1,-1,-1,-1,-1,-1,-1,-1,-1],"split_conditions":[1.514522E0,1.7125311E0,9.6669275E-1,-1.0378102E0,-4.375197E-1,7.9938495E-1,1.8908203E-1,-2.907753E-2,-6.912498E-1,9.6669275E-1,2.319327E0,-9.805934E-1,2.319327E0,-1.1117431E0,1.6043383E-1,2.8582873E0,9.936233E-2,3.9102736E0,1.8630779E-1,9.936233E-2,1.7124662E-1,3.7498496E-2,-8.0676997E-1,1.9678471E0,1.34872E-1,-3.0598195E-2,-0E0,-7.143538E-1,9.6669275E-1,1.1934076E-1,-1.0581439E0,1.9678471E0,-3.0825904E-2,-1.13649026E-1,1.6373655E-1,-7.177456E-3,-5.1745407E-2,1.137709E0,-1.8359164E-2,-4.4872772E-2,2.4319923E-2,-0E0,1.6069812E-1,-7.281168E-2,-5.5081323E-2,-4.8273332E-2,1.3743192E-1,9.140836E-2,-1.3338068E-2,5.633184E-2,-2.8002793E-2,1.2529587E-3,5.624505E-2],"split_indices":[5,20,11,1,2,20,0,5,1,11,12,25,12,1,0,14,22,10,0,22,0,0,1,13,0,0,0,1,11,21,5,13,0,1,0,0,0,21,0,0,0,0,0,0,0,0,0,0,0,0,0,0,0],"split_type":[0,0,0,0,0,0,0,0,0,0,0,0,0,0,0,0,0,0,0,0,0,0,0,0,0,0,0,0,0,0,0,0,0,0,0,0,0,0,0,0,0,0,0,0,0,0,0,0,0,0,0,0,0],"sum_hessian":[1.2872348E4,1.132734E4,1.5450078E3,9.672671E3,1.6546687E3,4.2060294E2,1.1244049E3,1.3055539E2,9.542115E3,6.654367E2,9.8923206E2,2.6057343E2,1.6002954E2,4.568237E1,8.487303E1,1.1218037E3,8.420312E3,1.6455441E2,5.0088226E2,8.054111E2,1.83821E2,1.9297535E1,2.4127588E2,1.3529875E2,2.473078E1,2.2282759E1,2.3399609E1,1.0497255E3,7.207816E1,8.325184E3,9.5128235E1,1.2852403E2,3.603038E1,7.2199603E2,8.3415016E1,2.4223951E1,2.1705193E2,1.0022095E2,3.5077805E1,9.7533514E2,7.439036E1,3.4873108E1,3.720506E1,5.2545103E3,3.0706733E3,6.3165726E1,3.1962511E1,1.01927055E2,2.6596975E1,3.8654462E2,3.3545142E2,4.8838306E1,5.1382645E1],"tree_param":{"num_deleted":"0","num_feature":"28","num_nodes":"53","size_leaf_vector":"1"}},{"base_weights":[-2.0353521E-1,-4.8785445E-1,1.7456461E0,-8.136052E-1,1.2861875E0,2.1615925E0,1.0439116E-3,1.3092471E0,-8.464868E-1,1.9526788E0,8.086904E-1,1.6797921E-1,-4.551523E-1,-5.151496E-1,7.4644053E-1,-2.6355627E-1,1.4417867E-1,-4.0670925E-1,-9.055488E-1,2.0872955E0,-2.9584922E-2,4.5646313E-1,1.5291493E-1,5.3120654E-2,-7.980051E-1,7.852315E-3,-6.3074E-1,3.3785746E-1,1.2440677E-1,-2.956504E-2,-0E0,-5.400524E-1,1.2315782E0,-9.204622E-1,2.974733E-1,1.6507424E-1,8.9795536E-1,-1.5718226E-1,1.4238028E-1,-6.623728E-2,-8.95466E-3,-6.799198E-1,-1.1520984E-2,-2.2959655E-2,9.205699E-2,-4.298327E-2,2.2573717E-2,1.5445963E-2,1.05189115E-1,-7.1167074E-2,-5.3140357E-2,-4.6649706E-2,1.2468708E-1,3.1456795E-2,1.3725989E-1,6.0117215E-2,-2.0509647E-2,-5.7239525E-2,-2.6250632E-2,3.274065E-2,-1.7568618E-2],"categories":[],"categories_nodes":[],"categories_segments":[],"categories_sizes":[],"default_left":[0,0,0,0,0,0,0,0,0,0,0,0,0,0,0,0,0,0,0,0,0,0,0,0,0,0,0,0,0,0,0,0,0,0,0,0,0,0,0,0,0,0,0,0,0,0,0,0,0,0,0,0,0,0,0,0,0,0,0,0,0],"id":4,"left_children":[1,3,5,7,9,11,13,15,17,19,21,-1,23,25,27,29,-1,31,33,35,-1,37,-1,-1,39,-1,41,43,-1,-1,-1,45,47,49,51,-1,53,55,-1,-1,-1,57,-1,59,-1,-1,-1,-1,-1,-1,-1,-1,-1,-1,-1,-1,-1,-1,-1,-1,-1],"loss_changes":[6.995842E3,6.3760527E3,1.1639927E3,6.628237E2,5.233096E2,8.067168E2,1.2868675E2,1.7998659E2,2.3264551E2,2.3772583E2,4.7768304E2,0E0,5.5469063E1,1.5607811E1,4.8356804E1,2.0401955E0,0E0,2.498592E2,1.4885645E2,1.8345435E2,0E0,8.0379645E2,0E0,0E0,6.9788284E0,0E0,1.6940155E0,4.167091E1,0E0,0E0,0E0,6.759555E1,1.7814453E1,1.11413086E2,1.6799252E2,0E0,5.4935608E1,8.546348E1,0E0,0E0,0E0,1.2684708E0,0E0,1.1671515E1,0E0,0E0,0E0,0E0,0E0,0E0,0E0,0E0,0E0,0E0,0E0,0E0,0E0,0E0,0E0,0E0,0E0],"parents":[2147483647,0,0,1,1,2,2,3,3,4,4,5,5,6,6,7,7,8,8,9,9,10,10,12,12,13,13,14,14,15,15,17,17,18,18,19,19,21,21,24,24,26,26,27,27,31,31,32,32,33,33,34,34,36,36,37,37,41,41,43,43],"right_children":[2,4,6,8,10,12,14,16,18,20,22,-1,24,26,28,30,-1,32,34,36,-1,38,-1,-1,40,-1,42,44,-1,-1,-1,46,48,50,52,-1,54,56,-1,-1,-1,58,-1,60,-1,-1,-1,-1,-1,-1,-1,-1,-1,-1,-1,-1,-1,-1,-1,-1,-1],"split_conditions":[1.514522E0,1.7125311E0,1.1762452E0,-1.0378102E0,-4.375197E-1,3.9102736E0,7.9938495E-1,-2.907753E-2,-6.912498E-1,3.9102736E0,2.319327E0,1.6797921E-1,-1.6694184E-1,-7.790451E-1,2.319327E0,-1.1117431E0,1.4417867E-1,2.8582873E0,9.936233E-2,1.1762452E0,-2.9584922E-2,2.0863435E0,1.5291493E-1,5.3120654E-2,8.879914E-1,7.852315E-3,2.0863435E0,2.0863435E0,1.2440677E-1,-2.956504E-2,-0E0,-7.143538E-1,-9.516123E-1,1.0641571E-1,-1.0581439E0,1.6507424E-1,2.0863435E0,-6.912498E-1,1.4238028E-1,-6.623728E-2,-8.95466E-3,-7.048414E-2,-1.1520984E-2,-4.375197E-1,9.205699E-2,-4.298327E-2,2.2573717E-2,1.5445963E-2,1.05189115E-1,-7.1167074E-2,-5.3140357E-2,-4.6649706E-2,1.2468708E-1,3.1456795E-2,1.3725989E-1,6.0117215E-2,-2.0509647E-2,-5.7239525E-2,-2.6250632E-2,3.274065E-2,-1.7568618E-2],"split_indices":[5,20,8,1,2,10,20,5,1,10,12,0,3,1,12,1,0,14,22,8,0,15,0,0,4,0,15,15,0,0,0,1,25,4,5,0,15,1,0,0,0,4,0,2,0,0,0,0,0,0,0,0,0,0,0,0,0,0,0,0,0],"split_type":[0,0,0,0,0,0,0,0,0,0,0,0,0,0,0,0,0,0,0,0,0,0,0,0,0,0,0,0,0,0,0,0,0,0,0,0,0,0,0,0,0,0,0,0,0,0,0,0,0,0,0,0,0,0,0,0,0,0,0,0,0],"sum_hessian":[1.2595379E4,1.1000316E4,1.5950624E3,9.299751E3,1.7005659E3,1.285204E3,3.0985846E2,1.3428134E2,9.16547E3,6.9346246E2,1.00710345E3,1.1813124E3,1.0389152E2,1.8447388E2,1.253846E2,4.5277496E1,8.9003845E1,1.0983889E3,8.0670806E3,6.580289E2,3.5433605E1,8.1460156E2,1.9250188E2,1.9060818E1,8.48307E1,2.7423513E1,1.5705035E2,1.0180875E2,2.3575855E1,2.1877886E1,2.3399609E1,1.0237211E3,7.466783E1,7.971906E3,9.5174965E1,5.274306E2,1.3059825E2,5.9335315E2,2.2124844E2,6.4381454E1,2.0449245E1,1.3516641E2,2.1883957E1,8.210282E1,1.9705925E1,9.4830817E2,7.541294E1,2.1005655E1,5.3662178E1,5.0080015E3,2.963904E3,6.1266064E1,3.3908897E1,1.0433634E2,2.6261911E1,6.1392807E1,5.319603E2,7.739329E1,5.7773117E1,2.0645864E1,6.1456955E1],"tree_param":{"num_deleted":"0","num_feature":"28","num_nodes":"61","size_leaf_vector":"1"}},{"base_weights":[-1.9428958E-1,-4.6814767E-1,1.594636E0,-7.8792584E-1,1.1803457E0,-8.192075E-2,1.5162411E-1,1.2034081E0,-8.2058114E-1,1.2952611E0,-7.528368E-1,-5.264344E-1,5.730382E-1,-2.540956E-1,1.3129064E-1,-3.8517648E-1,-8.8040113E-1,1.0676222E0,1.5673912E-1,-6.536564E-2,-2.84211E-4,3.4627967E-2,-6.3929963E-1,2.4154772E-1,1.13784134E-1,-2.8566869E-2,-0E0,-5.152016E-1,1.1254122E0,-8.978402E-1,1.4268778E-1,7.2257555E-1,1.4318289E-1,-1.8454723E-1,-4.98561E-2,-5.5761784E-2,7.494783E-2,-4.1147962E-2,2.0971717E-2,-1.9192488E-3,1.3600968E-1,-6.9785E-2,-5.13001E-2,-5.003127E-2,1.2114556E-1,-1.2955978E-2,7.955097E-2,-0E0,-2.2887187E-2,3.9067183E-2,-2.0483088E-2],"categories":[],"categories_nodes":[],"categories_segments":[],"categories_sizes":[],"default_left":[0,0,0,0,0,0,0,0,0,0,0,0,0,0,0,0,0,0,0,0,0,0,0,0,0,0,0,0,0,0,0,0,0,0,0,0,0,0,0,0,0,0,0,0,0,0,0,0,0,0,0],"id":5,"left_children":[1,3,5,7,9,11,-1,13,15,17,19,21,23,25,-1,27,29,31,-1,-1,-1,-1,33,35,-1,-1,-1,37,39,41,43,45,-1,47,-1,49,-1,-1,-1,-1,-1,-1,-1,-1,-1,-1,-1,-1,-1,-1,-1],"loss_changes":[6.036346E3,5.6414893E3,1.5593662E3,5.937075E2,3.987151E2,1.27179E2,0E0,1.5230762E2,2.2430957E2,3.2022998E2,1.3058067E1,3.387681E1,5.481235E1,1.8816147E0,0E0,2.2012077E2,1.4039697E2,4.3293115E2,0E0,0E0,0E0,0E0,5.341324E0,3.8345146E1,0E0,0E0,0E0,6.118866E1,8.6415886E1,1.1256006E2,2.0448099E2,3.8274365E2,0E0,1.6331751E0,0E0,1.9067696E1,0E0,0E0,0E0,0E0,0E0,0E0,0E0,0E0,0E0,0E0,0E0,0E0,0E0,0E0,0E0],"parents":[2147483647,0,0,1,1,2,2,3,3,4,4,5,5,7,7,8,8,9,9,10,10,11,11,12,12,13,13,15,15,16,16,17,17,22,22,23,23,27,27,28,28,29,29,30,30,31,31,33,33,35,35],"right_children":[2,4,6,8,10,12,-1,14,16,18,20,22,24,26,-1,28,30,32,-1,-1,-1,-1,34,36,-1,-1,-1,38,40,42,44,46,-1,48,-1,50,-1,-1,-1,-1,-1,-1,-1,-1,-1,-1,-1,-1,-1,-1,-1],"split_conditions":[1.514522E0,1.7125311E0,9.6669275E-1,-1.0378102E0,3.9102736E0,7.9938495E-1,1.5162411E-1,-2.907753E-2,-6.912498E-1,2.319327E0,1.7821398E0,-9.805934E-1,2.319327E0,-1.1117431E0,1.3129064E-1,2.8582873E0,8.9139275E-2,2.0863435E0,1.5673912E-1,-6.536564E-2,-2.84211E-4,3.4627967E-2,-7.790451E-1,2.0863435E0,1.13784134E-1,-2.8566869E-2,-0E0,-7.143538E-1,9.6669275E-1,1.0641571E-1,-1.0581439E0,9.6669275E-1,1.4318289E-1,7.347879E-1,-4.98561E-2,-6.958706E-1,7.494783E-2,-4.1147962E-2,2.0971717E-2,-1.9192488E-3,1.3600968E-1,-6.9785E-2,-5.13001E-2,-5.003127E-2,1.2114556E-1,-1.2955978E-2,7.955097E-2,-0E0,-2.2887187E-2,3.9067183E-2,-2.0483088E-2],"split_indices":[5,20,11,1,10,20,0,5,1,12,4,25,12,1,0,14,22,15,0,0,0,0,1,15,0,0,0,1,11,4,5,11,0,7,0,1,0,0,0,0,0,0,0,0,0,0,0,0,0,0,0],"split_type":[0,0,0,0,0,0,0,0,0,0,0,0,0,0,0,0,0,0,0,0,0,0,0,0,0,0,0,0,0,0,0,0,0,0,0,0,0,0,0,0,0,0,0,0,0,0,0,0,0,0,0],"sum_hessian":[1.2293307E4,1.0669397E4,1.6239086E3,8.941733E3,1.7276649E3,4.1255988E2,1.2113488E3,1.3683185E2,8.804901E3,1.6349543E3,9.271062E1,2.4807538E2,1.644845E2,4.488722E1,9.1944626E1,1.0763777E3,7.7285234E3,1.3375173E3,2.9743698E2,7.137289E1,2.133773E1,1.979675E1,2.2827863E2,1.3693433E2,2.7550158E1,2.148761E1,2.3399609E1,9.9896063E2,7.741709E1,7.6014E3,1.2712353E2,1.0037505E3,3.3376688E2,3.8747574E1,1.8953105E2,1.0806445E2,2.8869883E1,9.2259985E2,7.636078E1,3.632228E1,4.1094814E1,4.76021E3,2.8411897E3,8.640926E1,4.0714268E1,3.1453552E2,6.8921497E2,1.9174692E1,1.9572882E1,2.4361551E1,8.3702896E1],"tree_param":{"num_deleted":"0","num_feature":"28","num_nodes":"51","size_leaf_vector":"1"}},{"base_weights":[-1.8572663E-1,-4.4941834E-1,1.4739915E0,-7.735674E-1,8.1156766E-1,-7.233754E-2,1.3922322E-1,1.1071868E0,-8.0473715E-1,1.333523E0,4.5492336E-1,-3.585571E-1,8.527786E-1,-2.4655391E-1,1.20914444E-1,-4.6664718E-1,-8.8129467E-1,3.6065087E-1,1.6375985E0,2.0344701E-1,1.4734515E0,6.6236764E-2,-4.794655E-1,4.5578113E-1,1.08223245E-1,-2.5953915E-2,-0E0,-5.836048E-1,1.0498909E0,-8.996541E-1,1.4267477E-1,6.259732E-1,-3.7751112E-2,3.5312968E-1,1.8415132E0,-2.2579359E-1,1.310804E0,7.3454714E-1,1.2058059E-1,-2.96803E-1,-6.6561334E-2,1.1152049E-1,6.305477E-2,-5.1623322E-2,-2.286161E-2,-5.066559E-3,1.4739914E-1,-6.932279E-2,-5.132128E-2,-4.953239E-2,1.0915833E-1,2.028879E-2,1.0603454E-1,8.998397E-2,-1.3884186E-2,7.8067705E-2,1.3776147E-1,9.743118E-3,-3.844187E-2,3.4881886E-2,1.103596E-1,6.492571E-2,2.310437E-3,-4.3526847E-2,1.6461661E-3,2.8822258E-2,-2.0077283E-2],"categories":[],"categories_nodes":[],"categories_segments":[],"categories_sizes":[],"default_left":[0,0,0,0,0,0,0,0,0,0,0,0,0,0,0,0,0,0,0,0,0,0,0,0,0,0,0,0,0,0,0,0,0,0,0,0,0,0,0,0,0,0,0,0,0,0,0,0,0,0,0,0,0,0,0,0,0,0,0,0,0,0,0,0,0,0,0],"id":6,"left_children":[1,3,5,7,9,11,-1,13,15,17,19,21,23,25,-1,27,29,31,33,35,37,-1,39,41,-1,-1,-1,43,45,47,49,51,-1,53,55,57,59,61,-1,63,-1,65,-1,-1,-1,-1,-1,-1,-1,-1,-1,-1,-1,-1,-1,-1,-1,-1,-1,-1,-1,-1,-1,-1,-1,-1,-1],"loss_changes":[5.2581743E3,4.243503E3,1.3049141E3,4.9408008E2,3.8640625E2,1.14426834E2,0E0,1.2264708E2,2.0399072E2,2.4385193E2,3.2295013E2,5.6976963E1,1.7509155E1,1.4005108E0,0E0,2.7788245E2,1.26524414E2,5.6544052E1,1.5952917E2,5.0011963E2,2.7954468E1,0E0,2.2025581E1,1.0404375E1,0E0,0E0,0E0,5.207852E1,1.3726575E2,8.6322266E1,1.6497278E2,4.5470917E1,0E0,5.7516495E1,2.022998E1,9.0738434E1,5.1252136E1,1.0016899E1,0E0,2.5939163E1,0E0,8.861615E0,0E0,0E0,0E0,0E0,0E0,0E0,0E0,0E0,0E0,0E0,0E0,0E0,0E0,0E0,0E0,0E0,0E0,0E0,0E0,0E0,0E0,0E0,0E0,0E0,0E0],"parents":[2147483647,0,0,1,1,2,2,3,3,4,4,5,5,7,7,8,8,9,9,10,10,11,11,12,12,13,13,15,15,16,16,17,17,18,18,19,19,20,20,22,22,23,23,27,27,28,28,29,29,30,30,31,31,33,33,34,34,35,35,36,36,37,37,39,39,41,41],"right_children":[2,4,6,8,10,12,-1,14,16,18,20,22,24,26,-1,28,30,32,34,36,38,-1,40,42,-1,-1,-1,44,46,48,50,52,-1,54,56,58,60,62,-1,64,-1,66,-1,-1,-1,-1,-1,-1,-1,-1,-1,-1,-1,-1,-1,-1,-1,-1,-1,-1,-1,-1,-1,-1,-1,-1,-1],"split_conditions":[1.514522E0,1.0552422E0,9.6669275E-1,-1.0378102E0,-4.375197E-1,1.1388675E0,1.3922322E-1,-2.907753E-2,-5.777628E-1,9.6669275E-1,2.319327E0,-9.684982E-1,2.319327E0,2.7347276E-2,1.20914444E-1,2.8582873E0,8.9139275E-2,3.9102736E0,1.1613821E0,2.0863435E0,1.2900366E0,6.6236764E-2,3.9102736E0,4.015473E-2,1.08223245E-1,-2.5953915E-2,-0E0,1.4501204E-1,9.6669275E-1,1.0641571E-1,-1.0581439E0,2.0863435E0,-3.7751112E-2,1.0970548E0,1.2900366E0,-1.13649026E-1,1.2900366E0,1.2224929E0,1.2058059E-1,-3.188781E-2,-6.6561334E-2,-2.2926159E-1,6.305477E-2,-5.1623322E-2,-2.286161E-2,-5.066559E-3,1.4739914E-1,-6.932279E-2,-5.132128E-2,-4.953239E-2,1.0915833E-1,2.028879E-2,1.0603454E-1,8.998397E-2,-1.3884186E-2,7.8067705E-2,1.3776147E-1,9.743118E-3,-3.844187E-2,3.4881886E-2,1.103596E-1,6.492571E-2,2.310437E-3,-4.3526847E-2,1.6461661E-3,2.8822258E-2,-2.0077283E-2],"split_indices":[5,4,11,1,2,4,0,5,1,11,12,1,12,22,0,14,22,10,4,15,4,0,10,22,0,0,0,4,11,4,5,15,0,4,4,1,4,4,0,4,0,1,0,0,0,0,0,0,0,0,0,0,0,0,0,0,0,0,0,0,0,0,0,0,0,0,0],"split_type":[0,0,0,0,0,0,0,0,0,0,0,0,0,0,0,0,0,0,0,0,0,0,0,0,0,0,0,0,0,0,0,0,0,0,0,0,0,0,0,0,0,0,0,0,0,0,0,0,0,0,0,0,0,0,0,0,0,0,0,0,0,0,0,0,0,0,0],"sum_hessian":[1.1986635E4,1.0351387E4,1.6352482E3,8.238921E3,2.1124656E3,4.0815692E2,1.2270913E3,1.270411E2,8.11188E3,8.43019E2,1.2694464E3,3.1815396E2,9.000295E1,4.150506E1,8.553604E1,1.5158517E3,6.5960283E3,2.077752E2,6.352438E2,1.0304142E3,2.3903229E2,1.9375584E1,2.9877838E2,7.070424E1,1.9298712E1,2.198542E1,1.951964E1,1.4147831E3,1.0106867E2,6.4822373E3,1.137909E2,1.6409392E2,4.3681286E1,9.219403E1,5.4304974E2,7.4880707E2,2.8160715E2,7.259787E1,1.6643442E2,2.3072519E2,6.805321E1,4.9515846E1,2.1188395E1,8.7261707E2,5.4216595E2,5.3839493E1,4.7229183E1,4.2006553E3,2.281582E3,7.4407196E1,3.9383705E1,1.3124644E2,3.2847485E1,2.9054243E1,6.313979E1,9.67689E1,4.4628088E2,3.5302115E2,3.9578592E2,7.811473E1,2.034924E2,5.2926853E1,1.9671019E1,1.106981E2,1.20027084E2,2.9459255E1,2.0056591E1],"tree_param":{"num_deleted":"0","num_feature":"28","num_nodes":"67","size_leaf_vector":"1"}},{"base_weights":[-1.7719886E-1,-4.3096158E-1,1.3738592E0,-7.401905E-1,1.0232995E0,-6.401606E-2,1.2930594E-1,1.0411682E0,-7.722256E-1,1.1228241E0,-7.3111856E-1,-3.4987766E-1,8.021995E-1,-2.3797704E-1,1.6063157E0,-6.0158116E-1,-9.331107E-1,9.2415714E-1,1.3605955E-1,-6.377081E-2,-2.6930482E-4,6.3275956E-2,-4.72718E-1,1.0625632E0,-1.3878426E-2,-2.7145257E-2,-0E0,1.276414E-1,4.728025E-2,-6.800656E-1,2.9308867E-1,-9.53585E-1,-5.5918988E-2,6.28252E-1,1.2214012E-1,-6.1192876E-1,-0E0,6.384178E-1,1.03696935E-1,-5.801124E-2,-3.313818E-2,-2.9402073E-2,8.1331335E-2,-6.735248E-2,-0E0,-5.4099604E-2,9.680902E-2,6.8065695E-2,-1.1981141E-2,-3.24318E-2,-6.3599534E-2,1.9611297E-2,-1.0661694E-2,6.214706E-2,8.704388E-3],"categories":[],"categories_nodes":[],"categories_segments":[],"categories_sizes":[],"default_left":[0,0,0,0,0,0,0,0,0,0,0,0,0,0,0,0,0,0,0,0,0,0,0,0,0,0,0,0,0,0,0,0,0,0,0,0,0,0,0,0,0,0,0,0,0,0,0,0,0,0,0,0,0,0,0],"id":7,"left_children":[1,3,5,7,9,11,-1,13,15,17,19,21,23,25,27,29,31,33,-1,-1,-1,-1,35,37,-1,-1,-1,-1,-1,39,41,43,45,47,-1,49,51,53,-1,-1,-1,-1,-1,-1,-1,-1,-1,-1,-1,-1,-1,-1,-1,-1,-1],"loss_changes":[4.6060024E3,4.5296777E3,1.1142961E3,4.8290234E2,3.1882446E2,1.05969376E2,0E0,1.1522015E2,2.1571826E2,2.4790845E2,1.2200985E1,5.4230843E1,3.099868E1,1.7479649E0,4.06073E0,2.833711E2,7.332666E1,3.1659302E2,0E0,0E0,0E0,0E0,1.968158E1,1.8682785E0,0E0,0E0,0E0,0E0,0E0,1.0626611E2,2.0999968E2,2.4871094E1,1.2422363E2,2.8382324E2,0E0,3.8619385E0,3.9213033E0,5.9843807E0,0E0,0E0,0E0,0E0,0E0,0E0,0E0,0E0,0E0,0E0,0E0,0E0,0E0,0E0,0E0,0E0,0E0],"parents":[2147483647,0,0,1,1,2,2,3,3,4,4,5,5,7,7,8,8,9,9,10,10,11,11,12,12,13,13,14,14,15,15,16,16,17,17,22,22,23,23,29,29,30,30,31,31,32,32,33,33,35,35,36,36,37,37],"right_children":[2,4,6,8,10,12,-1,14,16,18,20,22,24,26,28,30,32,34,-1,-1,-1,-1,36,38,-1,-1,-1,-1,-1,40,42,44,46,48,-1,50,52,54,-1,-1,-1,-1,-1,-1,-1,-1,-1,-1,-1,-1,-1,-1,-1,-1,-1],"split_conditions":[1.514522E0,1.7125311E0,9.6669275E-1,-1.0378102E0,3.9102736E0,1.7125311E0,1.2930594E-1,-2.907753E-2,-1.13649026E-1,2.319327E0,1.7821398E0,-9.684982E-1,1.9678471E0,-1.1117431E0,7.347879E-1,2.8582873E0,8.9139275E-2,2.0863435E0,1.3605955E-1,-6.377081E-2,-2.6930482E-4,6.3275956E-2,7.9938495E-1,2.319327E0,-1.3878426E-2,-2.7145257E-2,-0E0,1.276414E-1,4.728025E-2,9.676663E-2,9.6669275E-1,1.4347727E0,-9.552372E-1,1.1762452E0,1.2214012E-1,3.9102736E0,7.908897E-1,7.347879E-1,1.03696935E-1,-5.801124E-2,-3.313818E-2,-2.9402073E-2,8.1331335E-2,-6.735248E-2,-0E0,-5.4099604E-2,9.680902E-2,6.8065695E-2,-1.1981141E-2,-3.24318E-2,-6.3599534E-2,1.9611297E-2,-1.0661694E-2,6.214706E-2,8.704388E-3],"split_indices":[5,20,11,1,10,20,0,5,1,12,4,1,13,1,7,14,22,15,0,0,0,0,20,12,0,0,0,0,0,4,11,4,5,8,0,10,3,7,0,0,0,0,0,0,0,0,0,0,0,0,0,0,0,0,0],"split_type":[0,0,0,0,0,0,0,0,0,0,0,0,0,0,0,0,0,0,0,0,0,0,0,0,0,0,0,0,0,0,0,0,0,0,0,0,0,0,0,0,0,0,0,0,0,0,0,0,0,0,0,0,0,0,0],"sum_hessian":[1.1674566E4,1.0041092E4,1.6334745E3,8.285808E3,1.755285E3,4.041803E2,1.2292942E3,1.3914642E2,8.1466606E3,1.6656841E3,8.960091E1,3.1013837E2,9.404195E1,4.4225254E1,9.492117E1,3.9840364E3,4.1626245E3,1.3614075E3,3.042766E2,6.8464485E1,2.1136415E1,2.0181744E1,2.899566E2,7.481416E1,1.9227781E1,2.0931675E1,2.329358E1,6.70701E1,2.7851076E1,3.6663997E3,3.1763672E2,4.0655466E3,9.707781E1,1.0159611E3,3.4544635E2,2.2075714E2,6.919947E1,5.328763E1,2.1526533E1,2.1229243E3,1.5434755E3,1.7709341E2,1.405433E2,4.0363435E3,2.9203106E1,6.89722E1,2.8105614E1,7.104451E2,3.05516E2,1.6915273E2,5.1604404E1,2.0106272E1,4.90932E1,2.8804724E1,2.4482904E1],"tree_param":{"num_deleted":"0","num_feature":"28","num_nodes":"55","size_leaf_vector":"1"}},{"base_weights":[-1.696062E-1,-4.138131E-1,1.2895458E0,-7.1621627E-1,9.475566E-1,-5.628992E-2,1.2118375E-1,9.788594E-1,-7.47912E-1,1.5055462E0,5.497977E-1,-4.6458805E-1,4.9305698E-1,-2.2940616E-1,1.05746165E-1,-4.697507E-1,-8.4931254E-1,4.9624535E-1,1.264342E-1,2.8058434E-1,1.1131749E-1,3.1256177E-2,-5.7571065E-1,2.0833729E-1,9.4977506E-2,-2.6228158E-2,-0E0,-5.7006115E-1,8.845702E-1,-8.709203E-1,1.5790299E-1,1.8754223E-1,9.1402695E-2,-1.9277886E-1,1.4211857E0,-9.487755E-3,-6.4893305E-1,-6.464079E-2,6.6642545E-2,-4.3724902E-2,7.0232704E-2,-1.558327E-2,1.498893E-1,-6.717118E-2,-4.9655885E-2,-4.8050597E-2,1.00043595E-1,-1.5257781E-2,9.649545E-2,4.693563E-2,-2.1948367E-2,6.0147874E-2,1.1355858E-1,-4.872417E-2,-1.5285734E-2,3.4884617E-2,-2.0110585E-2],"categories":[],"categories_nodes":[],"categories_segments":[],"categories_sizes":[],"default_left":[0,0,0,0,0,0,0,0,0,0,0,0,0,0,0,0,0,0,0,0,0,0,0,0,0,0,0,0,0,0,0,0,0,0,0,0,0,0,0,0,0,0,0,0,0,0,0,0,0,0,0,0,0,0,0,0,0],"id":8,"left_children":[1,3,5,7,9,11,-1,13,15,17,19,21,23,25,-1,27,29,31,-1,33,-1,-1,35,37,-1,-1,-1,39,41,43,45,47,-1,49,51,-1,53,55,-1,-1,-1,-1,-1,-1,-1,-1,-1,-1,-1,-1,-1,-1,-1,-1,-1,-1,-1],"loss_changes":[4.0580288E3,4.0226064E3,9.6563184E2,4.3766113E2,3.824192E2,9.514649E1,0E0,1.0203531E2,2.1524219E2,2.0626697E2,2.8805984E2,2.7847542E1,3.92928E1,1.6145945E0,0E0,2.9455865E2,1.2714844E2,4.132177E1,0E0,4.6607858E2,0E0,0E0,5.364479E0,3.2131714E1,0E0,0E0,0E0,1.735935E2,2.1637842E2,6.957764E1,1.5103888E2,7.585843E1,0E0,6.574245E1,9.045532E0,0E0,9.428482E-1,1.6525074E1,0E0,0E0,0E0,0E0,0E0,0E0,0E0,0E0,0E0,0E0,0E0,0E0,0E0,0E0,0E0,0E0,0E0,0E0,0E0],"parents":[2147483647,0,0,1,1,2,2,3,3,4,4,5,5,7,7,8,8,9,9,10,10,11,11,12,12,13,13,15,15,16,16,17,17,19,19,22,22,23,23,27,27,28,28,29,29,30,30,31,31,33,33,34,34,36,36,37,37],"right_children":[2,4,6,8,10,12,-1,14,16,18,20,22,24,26,-1,28,30,32,-1,34,-1,-1,36,38,-1,-1,-1,40,42,44,46,48,-1,50,52,-1,54,56,-1,-1,-1,-1,-1,-1,-1,-1,-1,-1,-1,-1,-1,-1,-1,-1,-1,-1,-1],"split_conditions":[1.514522E0,1.7125311E0,9.6669275E-1,-1.0378102E0,-4.375197E-1,7.9938495E-1,1.2118375E-1,-2.907753E-2,-4.717615E-1,9.6669275E-1,2.319327E0,-9.805934E-1,2.319327E0,-1.1117431E0,1.05746165E-1,2.8582873E0,8.9139275E-2,2.0863435E0,1.264342E-1,2.0863435E0,1.1131749E-1,3.1256177E-2,-7.790451E-1,2.0863435E0,9.4977506E-2,-2.6228158E-2,-0E0,-4.833135E-1,9.6669275E-1,2.1577197E-1,-1.0581439E0,2.319327E0,9.1402695E-2,-6.912498E-1,-5.0851697E-1,-9.487755E-3,2.0863435E0,-6.958706E-1,6.6642545E-2,-4.3724902E-2,7.0232704E-2,-1.558327E-2,1.498893E-1,-6.717118E-2,-4.9655885E-2,-4.8050597E-2,1.00043595E-1,-1.5257781E-2,9.649545E-2,4.693563E-2,-2.1948367E-2,6.0147874E-2,1.1355858E-1,-4.872417E-2,-1.5285734E-2,3.4884617E-2,-2.0110585E-2],"split_indices":[5,20,11,1,2,20,0,5,1,11,12,25,12,1,0,14,22,15,0,15,0,0,1,15,0,0,0,1,11,4,5,12,0,1,25,0,15,1,0,0,0,0,0,0,0,0,0,0,0,0,0,0,0,0,0,0,0],"split_type":[0,0,0,0,0,0,0,0,0,0,0,0,0,0,0,0,0,0,0,0,0,0,0,0,0,0,0,0,0,0,0,0,0,0,0,0,0,0,0,0,0,0,0,0,0,0,0,0,0,0,0,0,0,0,0,0,0],"sum_hessian":[1.1360729E4,9.739916E3,1.6208119E3,7.974868E3,1.7650485E3,4.0006973E2,1.2207422E3,1.3922108E2,7.835647E3,7.196143E2,1.0454341E3,2.3160374E2,1.6846599E2,4.387011E1,9.5350975E1,2.1139978E3,5.7216494E3,1.7165738E2,5.47957E2,8.42874E2,2.0256006E2,2.0289997E1,2.1131375E2,1.3867401E2,2.9791983E1,2.057653E1,2.329358E1,1.9753751E3,1.3862267E2,5.6040425E3,1.1760666E2,1.3574846E2,3.5908913E1,6.0209326E2,2.4078079E2,3.6939598E1,1.7437415E2,1.0839095E2,3.0283054E1,1.9181736E3,5.7201504E1,7.840602E1,6.021664E1,3.615718E3,1.9883246E3,7.34943E1,4.411236E1,1.0791843E2,2.783004E1,6.592534E1,5.361679E2,8.0484505E1,1.6029628E2,1.4891994E2,2.5454218E1,2.521153E1,8.317942E1],"tree_param":{"num_deleted":"0","num_feature":"28","num_nodes":"57","size_leaf_vector":"1"}},{"base_weights":[-1.6205932E-1,-3.973882E-1,1.2171942E0,-7.085749E-1,6.569987E-1,1.4817189E0,3.73815E-2,-1.4731017E-1,-8.01842E-1,1.1075504E0,3.5162088E-1,1.14786595E-1,-4.077571E-1,-3.5173965E-1,6.615033E-1,9.084062E-1,-3.040204E-1,-8.9942163E-1,-6.232885E-1,1.1977869E0,-4.8945233E-1,1.4325134E-1,1.1942451E0,3.8636234E-2,-7.671828E-1,1.4275083E-2,-4.75767E-1,8.68352E-1,-1.2024551E-2,-2.1905762E-1,1.4083799E0,-4.2184886E-1,8.605554E-1,-9.1364783E-1,7.358999E-2,-4.2135096E-1,-7.685442E-1,5.7900304E-1,1.4492795E0,-4.2304892E-2,-1.029465E-2,-2.1310258E-1,1.0368043E0,6.0967946E-1,9.837023E-2,-6.317732E-2,-1.1444405E-2,-4.4359878E-2,-1.978391E-1,1.7157778E-2,7.534778E-2,-2.4111507E-2,-0E0,1.1164841E-1,3.6293257E-2,-4.935728E-2,-1.3864845E-2,1.2020603E-2,7.377912E-2,-5.256552E-2,-6.754717E-2,-4.0557247E-2,7.131102E-2,-3.65746E-2,3.8799983E-2,-5.538665E-2,1.0492414E-2,5.154043E-2,-1.1497888E-2,1.1467292E-1,4.517525E-2,7.970515E-3,-3.6138814E-2,4.7285315E-2,1.14049904E-1,1.7515393E-2,5.2800428E-2,3.5972397E-3,-2.2887982E-2],"categories":[],"categories_nodes":[],"categories_segments":[],"categories_sizes":[],"default_left":[0,0,0,0,0,0,0,0,0,0,0,0,0,0,0,0,0,0,0,0,0,0,0,0,0,0,0,0,0,0,0,0,0,0,0,0,0,0,0,0,0,0,0,0,0,0,0,0,0,0,0,0,0,0,0,0,0,0,0,0,0,0,0,0,0,0,0,0,0,0,0,0,0,0,0,0,0,0,0],"id":9,"left_children":[1,3,5,7,9,11,13,15,17,19,21,-1,23,25,27,29,31,33,35,37,39,41,43,-1,45,-1,47,49,-1,51,53,55,57,59,61,63,65,67,69,-1,-1,71,73,75,-1,-1,-1,-1,77,-1,-1,-1,-1,-1,-1,-1,-1,-1,-1,-1,-1,-1,-1,-1,-1,-1,-1,-1,-1,-1,-1,-1,-1,-1,-1,-1,-1,-1,-1],"loss_changes":[3.5888076E3,3.1036064E3,5.0079663E2,3.7959937E2,2.906593E2,3.938943E2,7.794396E1,1.7741132E2,1.00693115E2,1.3232642E2,2.256649E2,0E0,4.2740246E1,1.4978174E1,2.3761421E1,8.306133E1,1.3143622E2,5.7188232E1,6.098993E1,1.15875854E2,2.9772568E-1,3.411687E2,1.888971E1,0E0,4.0142403E0,0E0,4.888386E0,8.608559E0,0E0,1.4196975E0,4.066101E0,5.130568E1,8.287849E0,2.16958E1,4.9237953E1,9.820361E1,2.7080322E1,3.1967422E1,7.1094604E1,0E0,0E0,7.684798E1,4.9761566E1,1.3635597E0,0E0,0E0,0E0,0E0,3.0214856E0,0E0,0E0,0E0,0E0,0E0,0E0,0E0,0E0,0E0,0E0,0E0,0E0,0E0,0E0,0E0,0E0,0E0,0E0,0E0,0E0,0E0,0E0,0E0,0E0,0E0,0E0,0E0,0E0,0E0,0E0],"parents":[2147483647,0,0,1,1,2,2,3,3,4,4,5,5,6,6,7,7,8,8,9,9,10,10,12,12,13,13,14,14,15,15,16,16,17,17,18,18,19,19,20,20,21,21,22,22,24,24,26,26,27,27,29,29,30,30,31,31,32,32,33,33,34,34,35,35,36,36,37,37,38,38,41,41,42,42,43,43,48,48],"right_children":[2,4,6,8,10,12,14,16,18,20,22,-1,24,26,28,30,32,34,36,38,40,42,44,-1,46,-1,48,50,-1,52,54,56,58,60,62,64,66,68,70,-1,-1,72,74,76,-1,-1,-1,-1,78,-1,-1,-1,-1,-1,-1,-1,-1,-1,-1,-1,-1,-1,-1,-1,-1,-1,-1,-1,-1,-1,-1,-1,-1,-1,-1,-1,-1,-1,-1],"split_conditions":[1.514522E0,1.0230786E0,1.1762452E0,-6.912498E-1,-4.375197E-1,3.9102736E0,7.23957E-1,-1.0378102E0,1.0641571E-1,3.9102736E0,2.319327E0,1.14786595E-1,-9.222901E-1,-7.790451E-1,1.9678471E0,-2.907753E-2,2.8582873E0,8.9139275E-2,-1.13649026E-1,1.2900366E0,7.38291E-2,2.0863435E0,1.2900366E0,3.8636234E-2,3.0037893E-2,1.4275083E-2,-3.188781E-2,1.1388675E0,-1.2024551E-2,2.7347276E-2,7.347879E-1,-8.29874E-1,-6.2048185E-1,-3.4468934E-1,2.0863435E0,2.8582873E0,9.936233E-2,3.484316E-1,1.1762452E0,-4.2304892E-2,-1.029465E-2,-1.13649026E-1,7.534721E-2,-3.3779743E-1,9.837023E-2,-6.317732E-2,-1.1444405E-2,-4.4359878E-2,2.1577197E-1,1.7157778E-2,7.534778E-2,-2.4111507E-2,-0E0,1.1164841E-1,3.6293257E-2,-4.935728E-2,-1.3864845E-2,1.2020603E-2,7.377912E-2,-5.256552E-2,-6.754717E-2,-4.0557247E-2,7.131102E-2,-3.65746E-2,3.8799983E-2,-5.538665E-2,1.0492414E-2,5.154043E-2,-1.1497888E-2,1.1467292E-1,4.517525E-2,7.970515E-3,-3.6138814E-2,4.7285315E-2,1.14049904E-1,1.7515393E-2,5.2800428E-2,3.5972397E-3,-2.2887982E-2],"split_indices":[5,4,8,1,2,10,4,1,4,10,12,0,1,1,13,5,14,22,1,4,5,15,4,0,22,0,4,4,0,22,7,1,4,1,15,14,22,1,8,0,0,1,22,5,0,0,0,0,4,0,0,0,0,0,0,0,0,0,0,0,0,0,0,0,0,0,0,0,0,0,0,0,0,0,0,0,0,0,0],"split_type":[0,0,0,0,0,0,0,0,0,0,0,0,0,0,0,0,0,0,0,0,0,0,0,0,0,0,0,0,0,0,0,0,0,0,0,0,0,0,0,0,0,0,0,0,0,0,0,0,0,0,0,0,0,0,0,0,0,0,0,0,0,0,0,0,0,0,0,0,0,0,0,0,0,0,0,0,0,0,0],"sum_hessian":[1.10294795E4,9.429826E3,1.5996536E3,7.28473E3,2.1450962E3,1.3034827E3,2.9617093E2,1.0439717E3,6.2407583E3,8.525116E2,1.2925846E3,1.2067783E3,9.670442E1,1.8466975E2,1.11501175E2,1.2667217E2,9.1729956E2,4.0004575E3,2.2403008E3,8.1034973E2,4.2161835E1,1.0485254E3,2.4405925E2,2.3870335E1,7.283408E1,3.0841738E1,1.5382802E2,8.987271E1,2.162847E1,4.0372517E1,8.629966E1,8.40747E2,7.6552505E1,3.944545E3,5.5912537E1,9.597414E2,1.2805594E3,2.467755E2,5.635743E2,2.2620127E1,1.9541708E1,7.553189E2,2.9320642E2,7.7734795E1,1.6632445E2,5.346618E1,1.9367907E1,8.628716E1,6.7540855E1,3.0022512E1,5.9850197E1,2.1283031E1,1.9089485E1,6.2812275E1,2.3487381E1,3.591407E2,4.8160632E2,2.2710188E1,5.3842316E1,9.6095953E2,2.9835854E3,3.5180065E1,2.0732473E1,8.763467E2,8.339472E1,1.2545175E3,2.6041965E1,2.052183E2,4.155719E1,4.4696118E2,1.1661308E2,3.648811E2,3.9043784E2,1.9846542E2,9.474101E1,3.346746E1,4.4267334E1,2.2783882E1,4.475697E1],"tree_param":{"num_deleted":"0","num_feature":"28","num_nodes":"79","size_leaf_vector":"1"}},{"base_weights":[-1.5497649E-1,-4.2536277E-1,9.4479316E-1,-6.717321E-1,1.0800033E0,1.0299025E0,-5.959223E-1,-1.21765554E-1,-7.6651925E-1,-3.0512547E-1,1.07303835E-1,1.4603115E0,7.131179E-1,-9.598715E-1,5.2184023E-2,8.707985E-1,-2.7497405E-1,-8.7901944E-1,-5.909091E-1,5.598647E-2,-4.2368057E-1,1.13530286E-1,7.112431E-1,4.7375053E-1,1.13850184E-1,-1.5230843E-2,-7.6983236E-2,-2.1460289E-1,1.3441815E0,-3.5943368E-1,6.5651226E-1,-8.952183E-1,1.7087476E-2,-4.7792277E-1,-8.56467E-1,-2.5161502E-1,-6.1663184E-2,3.894268E-1,1.1124941E-1,5.9332803E-2,9.938208E-2,-2.4942312E-2,-0E0,1.077349E-1,3.770199E-2,-3.9571658E-2,-8.204206E-3,8.058583E-3,5.7965126E-2,-5.0985713E-2,-6.6401474E-2,-4.30052E-2,7.06911E-2,-3.499806E-2,3.9124846E-2,-6.1689194E-2,-7.780652E-3,-3.7966758E-2,1.4500536E-3,-4.316111E-3,9.997237E-2,-1.1370076E-2,5.6483738E-2],"categories":[],"categories_nodes":[],"categories_segments":[],"categories_sizes":[],"default_left":[0,0,0,0,0,0,0,0,0,0,0,0,0,0,0,0,0,0,0,0,0,0,0,0,0,0,0,0,0,0,0,0,0,0,0,0,0,0,0,0,0,0,0,0,0,0,0,0,0,0,0,0,0,0,0,0,0,0,0,0,0,0,0],"id":10,"left_children":[1,3,5,7,9,11,13,15,17,19,-1,21,23,25,-1,27,29,31,33,-1,35,-1,37,39,-1,-1,-1,41,43,45,47,49,51,53,55,57,-1,59,-1,61,-1,-1,-1,-1,-1,-1,-1,-1,-1,-1,-1,-1,-1,-1,-1,-1,-1,-1,-1,-1,-1,-1,-1],"loss_changes":[3.1968064E3,3.2076274E3,2.860089E2,3.84854E2,7.652146E2,2.601504E2,6.63534E1,1.7059088E2,1.1728052E2,4.3951096E1,0E0,8.363916E1,2.4698328E2,5.912628E0,0E0,8.1666374E1,7.8754036E1,5.6628174E1,6.907562E1,0E0,1.8676922E1,0E0,3.828231E1,3.714311E2,0E0,0E0,0E0,1.5111809E0,4.5319214E0,4.3054535E1,5.6300583E0,2.264209E1,5.6914345E1,4.2293915E1,1.0390747E1,1.8515003E1,0E0,6.806064E1,0E0,1.14182E2,0E0,0E0,0E0,0E0,0E0,0E0,0E0,0E0,0E0,0E0,0E0,0E0,0E0,0E0,0E0,0E0,0E0,0E0,0E0,0E0,0E0,0E0,0E0],"parents":[2147483647,0,0,1,1,2,2,3,3,4,4,5,5,6,6,7,7,8,8,9,9,11,11,12,12,13,13,15,15,16,16,17,17,18,18,20,20,22,22,23,23,27,27,28,28,29,29,30,30,31,31,32,32,33,33,34,34,35,35,37,37,39,39],"right_children":[2,4,6,8,10,12,14,16,18,20,-1,22,24,26,-1,28,30,32,34,-1,36,-1,38,40,-1,-1,-1,42,44,46,48,50,52,54,56,58,-1,60,-1,62,-1,-1,-1,-1,-1,-1,-1,-1,-1,-1,-1,-1,-1,-1,-1,-1,-1,-1,-1,-1,-1,-1,-1],"split_conditions":[1.7125311E0,1.514522E0,3.9102736E0,-6.958706E-1,9.6669275E-1,-4.375197E-1,2.6256773E0,-1.0378102E0,1.0641571E-1,-9.684982E-1,1.07303835E-1,1.1762452E0,2.319327E0,-7.5353825E-1,5.2184023E-2,-2.907753E-2,-7.143538E-1,8.1633374E-2,3.484316E-1,5.598647E-2,3.9102736E0,1.13530286E-1,2.319327E0,2.0863435E0,1.13850184E-1,-1.5230843E-2,-7.6983236E-2,-1.1117431E0,7.347879E-1,9.676663E-2,-2.634658E-1,-3.4468934E-1,2.0863435E0,9.936233E-2,8.9139275E-2,-3.188781E-2,-6.1663184E-2,2.0863435E0,1.1124941E-1,1.2058021E0,9.938208E-2,-2.4942312E-2,-0E0,1.077349E-1,3.770199E-2,-3.9571658E-2,-8.204206E-3,8.058583E-3,5.7965126E-2,-5.0985713E-2,-6.6401474E-2,-4.30052E-2,7.06911E-2,-3.499806E-2,3.9124846E-2,-6.1689194E-2,-7.780652E-3,-3.7966758E-2,1.4500536E-3,-4.316111E-3,9.997237E-2,-1.1370076E-2,5.6483738E-2],"split_indices":[20,5,10,1,11,2,20,1,4,1,0,8,12,1,0,5,1,22,1,0,10,0,12,15,0,0,0,1,7,4,4,1,15,22,22,4,0,15,0,5,0,0,0,0,0,0,0,0,0,0,0,0,0,0,0,0,0,0,0,0,0,0,0],"split_type":[0,0,0,0,0,0,0,0,0,0,0,0,0,0,0,0,0,0,0,0,0,0,0,0,0,0,0,0,0,0,0,0,0,0,0,0,0,0,0,0,0,0,0,0,0,0,0,0,0,0,0,0,0,0,0,0,0,0,0,0,0,0,0],"sum_hessian":[1.0724062E4,8.614414E3,2.1096475E3,7.409138E3,1.2052758E3,2.0035962E3,1.0605135E2,1.0948204E3,6.3143174E3,2.958494E2,9.0942633E2,8.2975287E2,1.1738433E3,8.666162E1,1.9389734E1,1.3800705E2,9.5681335E2,3.8159597E3,2.498358E3,2.1212673E1,2.7463672E2,6.724273E2,1.573256E2,9.4469714E2,2.2914607E2,1.9521967E1,6.7139656E1,4.3261627E1,9.474542E1,8.850108E2,7.1802505E1,3.7493113E3,6.664835E1,1.7788685E3,7.194894E2,2.1444366E2,6.019306E1,1.2852852E2,2.8797096E1,6.6590314E2,2.78794E2,2.0078323E1,2.3183302E1,6.678212E1,2.7963305E1,4.6898343E2,4.160274E2,2.3351807E1,4.84507E1,9.246953E2,2.824616E3,4.2914932E1,2.3733423E1,1.7505038E3,2.8364721E1,6.945504E2,2.493893E1,9.994171E1,1.14501945E2,9.67359E1,3.1792616E1,5.1968567E2,1.4621751E2],"tree_param":{"num_deleted":"0","num_feature":"28","num_nodes":"63","size_leaf_vector":"1"}},{"base_weights":[-1.4834933E-1,-3.662985E-1,1.097582E0,-6.6367686E-1,5.8380157E-1,-4.377176E-2,1.0385231E-1,-1.2919478E-1,-7.573375E-1,6.6570437E-1,-7.980818E-1,-2.8201982E-1,6.2994224E-1,8.1610405E-1,-2.7197525E-1,-8.5904706E-1,-5.774637E-1,1.060766E0,3.941841E-1,-9.4470036E-1,-1.3317312E-3,5.1676687E-2,-3.934378E-1,3.233086E-1,8.231241E-2,-2.0347147E-1,1.2701541E0,-3.8765725E-1,8.21601E-1,-8.753214E-1,8.627274E-3,-3.7883738E-1,-7.2453105E-1,5.092249E-1,1.2884125E0,1.9652887E-1,1.1823943E0,-2.2329144E-2,-7.228984E-2,-2.2145273E-1,-6.1207592E-2,3.4830417E-2,4.9517024E-2,-2.2560988E-2,-0E0,1.0070011E-1,3.2877695E-2,-4.6736795E-2,-1.210488E-2,-0E0,9.166969E-2,-4.9353E-2,-6.5114774E-2,-3.8557988E-2,7.127045E-2,-3.3600792E-2,3.820828E-2,-5.230773E-2,8.9590885E-3,4.5314316E-2,-1.0997024E-2,4.001178E-2,1.0271309E-1,-9.159848E-3,6.85455E-2,4.3317225E-2,9.711446E-2,-3.6481764E-2,3.0242149E-3,2.2106048E-2,-2.2161707E-2],"categories":[],"categories_nodes":[],"categories_segments":[],"categories_sizes":[],"default_left":[0,0,0,0,0,0,0,0,0,0,0,0,0,0,0,0,0,0,0,0,0,0,0,0,0,0,0,0,0,0,0,0,0,0,0,0,0,0,0,0,0,0,0,0,0,0,0,0,0,0,0,0,0,0,0,0,0,0,0,0,0,0,0,0,0,0,0,0,0,0,0],"id":11,"left_children":[1,3,5,7,9,11,-1,13,15,17,19,21,23,25,27,29,31,33,35,37,-1,-1,39,41,-1,43,45,47,49,51,53,55,57,59,61,63,65,-1,-1,67,-1,69,-1,-1,-1,-1,-1,-1,-1,-1,-1,-1,-1,-1,-1,-1,-1,-1,-1,-1,-1,-1,-1,-1,-1,-1,-1,-1,-1,-1,-1],"loss_changes":[2.8337214E3,2.513269E3,6.814265E2,3.367683E2,2.4642078E2,6.621119E1,0E0,1.4050284E2,9.790137E1,2.0919604E2,1.292968E1,3.785846E1,1.1863785E1,6.741525E1,1.1732887E2,5.24729E1,5.7500916E1,9.207703E1,1.8468571E2,2.3635101E-1,0E0,0E0,2.0029915E1,8.507109E0,0E0,1.2359607E0,2.8674316E0,4.7135612E1,3.5583286E1,2.3131104E1,5.0997936E1,8.90815E1,2.3472229E1,2.5201523E1,5.924646E1,2.5381975E2,1.5096344E1,0E0,0E0,1.8678196E1,0E0,7.4289207E0,0E0,0E0,0E0,0E0,0E0,0E0,0E0,0E0,0E0,0E0,0E0,0E0,0E0,0E0,0E0,0E0,0E0,0E0,0E0,0E0,0E0,0E0,0E0,0E0,0E0,0E0,0E0,0E0,0E0],"parents":[2147483647,0,0,1,1,2,2,3,3,4,4,5,5,7,7,8,8,9,9,10,10,11,11,12,12,13,13,14,14,15,15,16,16,17,17,18,18,19,19,22,22,23,23,25,25,26,26,27,27,28,28,29,29,30,30,31,31,32,32,33,33,34,34,35,35,36,36,39,39,41,41],"right_children":[2,4,6,8,10,12,-1,14,16,18,20,22,24,26,28,30,32,34,36,38,-1,-1,40,42,-1,44,46,48,50,52,54,56,58,60,62,64,66,-1,-1,68,-1,70,-1,-1,-1,-1,-1,-1,-1,-1,-1,-1,-1,-1,-1,-1,-1,-1,-1,-1,-1,-1,-1,-1,-1,-1,-1,-1,-1,-1,-1],"split_conditions":[1.514522E0,1.0230786E0,9.6669275E-1,-6.912498E-1,3.9102736E0,1.1388675E0,1.0385231E-1,-1.0378102E0,1.0641571E-1,-4.375197E-1,1.7821398E0,-9.684982E-1,2.319327E0,-2.907753E-2,2.8582873E0,8.1633374E-2,-1.13649026E-1,1.2900366E0,2.319327E0,-7.790451E-1,-1.3317312E-3,5.1676687E-2,3.9102736E0,4.015473E-2,8.231241E-2,2.70463E-2,7.347879E-1,-8.29874E-1,9.6669275E-1,-3.4468934E-1,-1.0581439E0,2.8582873E0,9.936233E-2,3.484316E-1,9.6669275E-1,2.0863435E0,1.2900366E0,-2.2329144E-2,-7.228984E-2,-3.188781E-2,-6.1207592E-2,-2.2926159E-1,4.9517024E-2,-2.2560988E-2,-0E0,1.0070011E-1,3.2877695E-2,-4.6736795E-2,-1.210488E-2,-0E0,9.166969E-2,-4.9353E-2,-6.5114774E-2,-3.8557988E-2,7.127045E-2,-3.3600792E-2,3.820828E-2,-5.230773E-2,8.9590885E-3,4.5314316E-2,-1.0997024E-2,4.001178E-2,1.0271309E-1,-9.159848E-3,6.85455E-2,4.3317225E-2,9.711446E-2,-3.6481764E-2,3.0242149E-3,2.2106048E-2,-2.2161707E-2],"split_indices":[5,4,11,1,10,4,0,1,4,2,4,1,12,5,14,22,1,4,12,1,0,0,10,22,0,22,7,1,11,1,5,14,22,1,11,15,4,0,0,4,0,1,0,0,0,0,0,0,0,0,0,0,0,0,0,0,0,0,0,0,0,0,0,0,0,0,0,0,0,0,0],"split_type":[0,0,0,0,0,0,0,0,0,0,0,0,0,0,0,0,0,0,0,0,0,0,0,0,0,0,0,0,0,0,0,0,0,0,0,0,0,0,0,0,0,0,0,0,0,0,0,0,0,0,0,0,0,0,0,0,0,0,0,0,0,0,0,0,0,0,0,0,0,0,0],"sum_hessian":[1.0408295E4,8.866555E3,1.5417405E3,6.7564707E3,2.110084E3,3.893881E2,1.1523523E3,1.0132888E3,5.743182E3,1.9985734E3,1.1151056E2,2.9391196E2,9.547616E1,1.246214E2,8.886674E2,3.6362163E3,2.1069656E3,7.9837494E2,1.2001985E3,9.062208E1,2.0888487E1,2.145086E1,2.724611E2,7.4452934E1,2.102322E1,3.9759964E1,8.4861435E1,8.114864E2,7.718103E1,3.5702979E3,6.591861E1,9.1750793E2,1.1894578E3,2.4588391E2,5.52491E2,9.7257245E2,2.2762604E2,1.9145164E1,7.147691E1,2.1494615E2,5.7514935E1,5.1404217E1,2.304872E1,2.066006E1,1.9099903E1,6.1431652E1,2.3429785E1,3.4050842E2,4.70978E2,3.3102024E1,4.407901E1,8.8692377E2,2.683374E3,4.5282486E1,2.0636126E1,8.33896E2,8.361189E1,1.1631919E3,2.6265888E1,2.055272E2,4.03567E1,1.19876335E2,4.3261472E2,6.9152997E2,2.8104245E2,7.411968E1,1.5350636E2,9.729945E1,1.17646706E2,3.0833237E1,2.057098E1],"tree_param":{"num_deleted":"0","num_feature":"28","num_nodes":"71","size_leaf_vector":"1"}},{"base_weights":[-1.4186682E-1,-3.978015E-1,8.544434E-1,-6.2872326E-1,9.800178E-1,1.2573671E0,5.64147E-1,-1.07805096E-1,-7.2324055E-1,-2.763172E-1,9.799574E-2,4.927854E-1,1.04103014E-1,3.6220628E-1,9.48716E-2,7.87591E-1,-2.4750234E-1,-8.3911276E-1,-5.495854E-1,4.977674E-2,-3.8930285E-1,2.4762115E-1,8.914446E-2,2.3690777E-1,1.0245723E-1,-2.0112883E-1,1.2236009E0,-3.292482E-1,6.1056894E-1,-8.5590905E-1,2.2034813E-2,-4.386607E-1,-8.186994E-1,-2.2706504E-1,-5.888625E-2,1.7775E-2,7.891944E-2,5.545968E-1,-2.1884981E-1,-2.3753595E-2,-0E0,9.827902E-2,3.4249753E-2,-1.7229835E-2,-6.8404354E-2,8.572554E-3,5.3728856E-2,-4.7792472E-2,-6.387854E-2,-3.6171447E-2,6.734425E-2,-3.2678567E-2,2.8828362E-2,-5.9077907E-2,-7.3269047E-3,-3.5036035E-2,1.1159865E-3,3.5613984E-2,-2.7965235E-2,4.4019483E-2,-4.0096864E-2,-2.456957E-2,2.880545E-2],"categories":[],"categories_nodes":[],"categories_segments":[],"categories_sizes":[],"default_left":[0,0,0,0,0,0,0,0,0,0,0,0,0,0,0,0,0,0,0,0,0,0,0,0,0,0,0,0,0,0,0,0,0,0,0,0,0,0,0,0,0,0,0,0,0,0,0,0,0,0,0,0,0,0,0,0,0,0,0,0,0,0,0],"id":12,"left_children":[1,3,5,7,9,11,13,15,17,19,-1,21,-1,23,-1,25,27,29,31,-1,33,35,-1,37,-1,39,41,43,45,47,49,51,53,55,-1,57,-1,59,61,-1,-1,-1,-1,-1,-1,-1,-1,-1,-1,-1,-1,-1,-1,-1,-1,-1,-1,-1,-1,-1,-1,-1,-1],"loss_changes":[2.5856714E3,2.573225E3,2.3209143E2,3.3873218E2,6.1452295E2,1.3780505E2,1.87897E2,1.3661783E2,1.1078711E2,3.630191E1,0E0,3.5712982E1,0E0,1.3108646E2,0E0,6.750447E1,6.823836E1,5.143042E1,6.546185E1,0E0,1.6871758E1,3.4789013E1,0E0,1.332855E2,0E0,1.4133177E0,3.563736E0,4.2856087E1,4.4488583E0,2.364038E1,4.5318714E1,4.1989807E1,9.404572E0,1.5249968E1,0E0,3.420989E1,0E0,4.872838E1,3.3134262E1,0E0,0E0,0E0,0E0,0E0,0E0,0E0,0E0,0E0,0E0,0E0,0E0,0E0,0E0,0E0,0E0,0E0,0E0,0E0,0E0,0E0,0E0,0E0,0E0],"parents":[2147483647,0,0,1,1,2,2,3,3,4,4,5,5,6,6,7,7,8,8,9,9,11,11,13,13,15,15,16,16,17,17,18,18,20,20,21,21,23,23,25,25,26,26,27,27,28,28,29,29,30,30,31,31,32,32,33,33,35,35,37,37,38,38],"right_children":[2,4,6,8,10,12,14,16,18,20,-1,22,-1,24,-1,26,28,30,32,-1,34,36,-1,38,-1,40,42,44,46,48,50,52,54,56,-1,58,-1,60,62,-1,-1,-1,-1,-1,-1,-1,-1,-1,-1,-1,-1,-1,-1,-1,-1,-1,-1,-1,-1,-1,-1,-1,-1],"split_conditions":[1.7125311E0,1.514522E0,-4.375197E-1,-6.958706E-1,9.6669275E-1,9.6669275E-1,2.319327E0,-1.0378102E0,1.0641571E-1,-9.684982E-1,9.799574E-2,2.319327E0,1.04103014E-1,1.180521E-1,9.48716E-2,-2.907753E-2,-7.143538E-1,8.1633374E-2,3.484316E-1,4.977674E-2,3.9102736E0,8.1633374E-2,8.914446E-2,-1.13649026E-1,1.0245723E-1,-1.1117431E0,7.347879E-1,3.9102736E0,-2.6024944E-1,-3.4468934E-1,-1.0581439E0,2.5601545E-1,8.9139275E-2,-3.188781E-2,-5.888625E-2,-1.13649026E-1,7.891944E-2,3.9102736E0,1.2058021E0,-2.3753595E-2,-0E0,9.827902E-2,3.4249753E-2,-1.7229835E-2,-6.8404354E-2,8.572554E-3,5.3728856E-2,-4.7792472E-2,-6.387854E-2,-3.6171447E-2,6.734425E-2,-3.2678567E-2,2.8828362E-2,-5.9077907E-2,-7.3269047E-3,-3.5036035E-2,1.1159865E-3,3.5613984E-2,-2.7965235E-2,4.4019483E-2,-4.0096864E-2,-2.456957E-2,2.880545E-2],"split_indices":[20,5,2,1,11,11,12,1,4,1,0,12,0,22,0,5,1,22,1,0,10,22,0,1,0,1,7,10,4,1,5,1,22,4,0,1,0,10,5,0,0,0,0,0,0,0,0,0,0,0,0,0,0,0,0,0,0,0,0,0,0,0,0],"split_type":[0,0,0,0,0,0,0,0,0,0,0,0,0,0,0,0,0,0,0,0,0,0,0,0,0,0,0,0,0,0,0,0,0,0,0,0,0,0,0,0,0,0,0,0,0,0,0,0,0,0,0,0,0,0,0,0,0,0,0,0,0,0,0],"sum_hessian":[1.0114069E4,8.0534824E3,2.0605864E3,6.9036797E3,1.149803E3,8.447186E2,1.2158678E3,1.0658224E3,5.837857E3,2.8698526E2,8.6281775E2,2.0296373E2,6.417549E2,9.828932E2,2.3297462E2,1.3536725E2,9.3045514E2,3.4704434E3,2.3674138E3,2.2080305E1,2.6490494E2,1.673425E2,3.562122E1,8.961707E2,8.672246E1,4.2702858E1,9.266439E1,8.573399E2,7.3115234E1,3.4052595E3,6.518382E1,1.701399E3,6.660147E2,2.0963547E2,5.5269474E1,1.4321324E2,2.4129267E1,5.278329E2,3.6833786E2,1.9619627E1,2.3083231E1,6.479474E1,2.7869658E1,7.7512646E2,8.2213425E1,2.4380594E1,4.8734642E1,8.5637854E2,2.548881E3,4.419033E1,2.0993488E1,1.6549633E3,4.643582E1,6.413138E2,2.470093E1,9.4794815E1,1.1484065E2,6.569547E1,7.751777E1,5.015371E2,2.6295761E1,3.1043658E2,5.7901264E1],"tree_param":{"num_deleted":"0","num_feature":"28","num_nodes":"63","size_leaf_vector":"1"}},{"base_weights":[-1.3569382E-1,-3.8339528E-1,8.0730027E-1,-6.066242E-1,9.377592E-1,8.826635E-1,-5.602727E-1,-1.02690995E-1,-7.01379E-1,-2.6253566E-1,9.418764E-2,1.2700173E0,6.060514E-1,-9.217885E-1,4.8168357E-2,-2.1387275E-1,9.1641825E-1,-8.198808E-1,-5.268341E-1,5.8723435E-2,-3.789869E-1,9.956854E-2,6.1490524E-1,3.982106E-1,1.00360736E-1,-1.5113998E-2,-7.419403E-2,6.507831E-1,-3.4552303E-1,5.7954818E-2,9.7683504E-2,-8.3666754E-1,1.3883318E-2,-5.9005654E-1,-4.8252646E-2,-2.2163476E-1,-5.6494776E-2,3.2786432E-1,9.801943E-2,2.8150094E-1,9.734705E-2,-2.1866594E-2,7.931255E-2,-2.932121E-2,2.4604548E-2,-1.834989E-2,2.7139308E-2,-5.509518E-2,-7.369417E-2,-3.6047976E-2,6.372819E-2,-4.326255E-2,3.4521732E-2,7.6305166E-2,-1.8685952E-2,-3.3461843E-2,2.7552963E-4,4.6445816E-3,7.513114E-2,4.0656283E-2,-1.1232945E-2],"categories":[],"categories_nodes":[],"categories_segments":[],"categories_sizes":[],"default_left":[0,0,0,0,0,0,0,0,0,0,0,0,0,0,0,0,0,0,0,0,0,0,0,0,0,0,0,0,0,0,0,0,0,0,0,0,0,0,0,0,0,0,0,0,0,0,0,0,0,0,0,0,0,0,0,0,0,0,0,0,0],"id":13,"left_children":[1,3,5,7,9,11,13,15,17,19,-1,21,23,25,-1,27,29,31,33,-1,35,-1,37,39,-1,-1,-1,41,43,45,-1,47,49,51,53,55,-1,57,-1,59,-1,-1,-1,-1,-1,-1,-1,-1,-1,-1,-1,-1,-1,-1,-1,-1,-1,-1,-1,-1,-1],"loss_changes":[2.30001E3,2.3057285E3,2.1738672E2,3.171682E2,5.5514E2,1.974895E2,5.9060913E1,1.23174194E2,1.0964429E2,4.1098106E1,0E0,6.570703E1,1.9022339E2,5.004341E0,0E0,1.13680725E2,4.1278183E1,4.7435547E1,6.886072E1,0E0,1.5325352E1,0E0,3.114125E1,1.0271115E2,0E0,0E0,0E0,6.618672E1,4.5105156E1,6.744161E0,0E0,2.392871E1,4.1962154E1,6.264966E1,7.310704E1,1.3147503E1,0E0,2.5543957E1,0E0,1.1485135E2,0E0,0E0,0E0,0E0,0E0,0E0,0E0,0E0,0E0,0E0,0E0,0E0,0E0,0E0,0E0,0E0,0E0,0E0,0E0,0E0,0E0],"parents":[2147483647,0,0,1,1,2,2,3,3,4,4,5,5,6,6,7,7,8,8,9,9,11,11,12,12,13,13,15,15,16,16,17,17,18,18,20,20,22,22,23,23,27,27,28,28,29,29,31,31,32,32,33,33,34,34,35,35,37,37,39,39],"right_children":[2,4,6,8,10,12,14,16,18,20,-1,22,24,26,-1,28,30,32,34,-1,36,-1,38,40,-1,-1,-1,42,44,46,-1,48,50,52,54,56,-1,58,-1,60,-1,-1,-1,-1,-1,-1,-1,-1,-1,-1,-1,-1,-1,-1,-1,-1,-1,-1,-1,-1,-1],"split_conditions":[1.7125311E0,1.514522E0,3.9102736E0,-6.912498E-1,9.6669275E-1,-4.375197E-1,2.6256773E0,2.8582873E0,1.0641571E-1,-2.3535837E-1,9.418764E-2,1.1762452E0,2.319327E0,-7.5353825E-1,4.8168357E-2,-1.0378102E0,9.6669275E-1,8.1633374E-2,2.8582873E0,5.8723435E-2,3.9102736E0,9.956854E-2,2.319327E0,1.180521E-1,1.00360736E-1,-1.5113998E-2,-7.419403E-2,-2.907753E-2,-7.143538E-1,-9.228195E-1,9.7683504E-2,2.1930099E0,-1.0581439E0,9.936233E-2,-3.4468934E-1,-3.188781E-2,-5.6494776E-2,8.1633374E-2,9.801943E-2,-1.13649026E-1,9.734705E-2,-2.1866594E-2,7.931255E-2,-2.932121E-2,2.4604548E-2,-1.834989E-2,2.7139308E-2,-5.509518E-2,-7.369417E-2,-3.6047976E-2,6.372819E-2,-4.326255E-2,3.4521732E-2,7.6305166E-2,-1.8685952E-2,-3.3461843E-2,2.7552963E-4,4.6445816E-3,7.513114E-2,4.0656283E-2,-1.1232945E-2],"split_indices":[20,5,10,1,11,2,20,14,4,3,0,8,12,1,0,1,11,22,14,0,10,0,12,22,0,0,0,5,1,25,0,17,5,22,1,4,0,22,0,1,0,0,0,0,0,0,0,0,0,0,0,0,0,0,0,0,0,0,0,0,0],"split_type":[0,0,0,0,0,0,0,0,0,0,0,0,0,0,0,0,0,0,0,0,0,0,0,0,0,0,0,0,0,0,0,0,0,0,0,0,0,0,0,0,0,0,0,0,0,0,0,0,0,0,0,0,0,0,0,0,0,0,0,0,0],"sum_hessian":[9.820647E3,7.7841284E3,2.0365186E3,6.6651914E3,1.1189371E3,1.9348788E3,1.0163979E2,1.0605328E3,5.6046587E3,2.8276178E2,8.361754E2,7.8662177E2,1.148257E3,8.1843864E1,1.9795929E1,9.6564655E2,9.488623E1,3.3084167E3,2.296242E3,1.9140923E1,2.6362088E2,6.278219E2,1.5879987E2,9.323176E2,2.159394E2,1.940652E1,6.2437344E1,1.2034258E2,8.4530396E2,3.940791E1,5.547832E1,3.2442554E3,6.416138E1,2.0239814E3,2.7226044E2,2.0760033E2,5.602054E1,1.2957555E2,2.9224323E1,8.4865753E2,8.3660065E1,4.0747177E1,7.9595406E1,7.71234E2,7.4069984E1,1.9693808E1,1.9714102E1,2.6669011E3,5.773544E2,4.286336E1,2.1298018E1,1.9811454E3,4.2836014E1,3.5411465E1,2.3684897E2,9.31614E1,1.14438934E2,1.064992E2,2.3076345E1,5.0576666E2,3.4289087E2],"tree_param":{"num_deleted":"0","num_feature":"28","num_nodes":"61","size_leaf_vector":"1"}},{"base_weights":[-1.2957771E-1,-3.6933625E-1,7.6421297E-1,1.6564777E-1,-5.704567E-1,1.1475031E0,4.970235E-1,-3.6966646E-1,3.4320882E-1,-3.3858284E-1,-7.282982E-1,4.4862023E-1,9.586716E-2,2.896656E-1,1.138233E0,5.1872194E-2,-4.9008453E-1,2.5572732E-1,1.0910823E-1,-3.7320763E-1,7.092028E-2,-9.090044E-1,-6.272676E-1,2.0968372E-1,7.8775354E-2,-2.393935E-2,8.66264E-2,7.410355E-1,9.112395E-2,-2.247428E-1,-7.0021175E-2,5.134718E-1,8.8581696E-2,-5.9892684E-1,-1.9840325E-1,-6.848037E-2,-4.886598E-2,-4.6070576E-1,-7.9544634E-1,-1.2263727E-1,8.0168165E-2,6.937647E-1,-1.4462489E-1,6.392545E-2,3.7008685E-1,-3.400902E-2,1.4091162E-2,-1.5093934E-2,4.2788718E-2,-1.4674923E-2,1.3320822E-2,-5.555019E-2,-2.8095413E-2,-1.0027106E-2,-6.668959E-2,-3.69221E-2,3.4379058E-2,-5.6962155E-2,-7.499492E-3,1.9055719E-2,-2.8574482E-2,5.871144E-2,1.51128275E-2,-1.4020766E-2,4.8375282E-2,4.6771313E-3,3.867823E-2],"categories":[],"categories_nodes":[],"categories_segments":[],"categories_sizes":[],"default_left":[0,0,0,0,0,0,0,0,0,0,0,0,0,0,0,0,0,0,0,0,0,0,0,0,0,0,0,0,0,0,0,0,0,0,0,0,0,0,0,0,0,0,0,0,0,0,0,0,0,0,0,0,0,0,0,0,0,0,0,0,0,0,0,0,0,0,0],"id":14,"left_children":[1,3,5,7,9,11,13,15,17,19,21,23,-1,25,27,-1,29,31,-1,33,-1,35,37,39,-1,41,-1,43,-1,45,-1,47,49,51,53,-1,-1,55,57,59,-1,61,63,-1,65,-1,-1,-1,-1,-1,-1,-1,-1,-1,-1,-1,-1,-1,-1,-1,-1,-1,-1,-1,-1,-1,-1],"loss_changes":[2.0478577E3,8.120609E2,1.9851917E2,1.9788333E2,1.9649695E2,1.1640674E2,1.5599777E2,7.3420845E1,1.587683E2,1.0875839E2,5.089856E1,3.043465E1,0E0,2.7859338E2,5.024719E0,0E0,6.029727E1,6.215178E1,0E0,8.4478455E1,0E0,6.3706055E0,5.3866272E1,5.677735E1,0E0,6.238201E1,0E0,1.8557968E0,0E0,3.794741E1,0E0,4.2294113E1,2.786187E1,3.140268E1,4.9791084E1,0E0,0E0,7.176849E1,9.932251E0,1.7027514E1,0E0,3.8731003E0,2.9805573E1,0E0,2.1226587E0,0E0,0E0,0E0,0E0,0E0,0E0,0E0,0E0,0E0,0E0,0E0,0E0,0E0,0E0,0E0,0E0,0E0,0E0,0E0,0E0,0E0,0E0],"parents":[2147483647,0,0,1,1,2,2,3,3,4,4,5,5,6,6,7,7,8,8,9,9,10,10,11,11,13,13,14,14,16,16,17,17,19,19,21,21,22,22,23,23,25,25,27,27,29,29,31,31,32,32,33,33,34,34,37,37,38,38,39,39,41,41,42,42,44,44],"right_children":[2,4,6,8,10,12,14,16,18,20,22,24,-1,26,28,-1,30,32,-1,34,-1,36,38,40,-1,42,-1,44,-1,46,-1,48,50,52,54,-1,-1,56,58,60,-1,62,64,-1,66,-1,-1,-1,-1,-1,-1,-1,-1,-1,-1,-1,-1,-1,-1,-1,-1,-1,-1,-1,-1,-1,-1],"split_conditions":[1.7125311E0,-5.777628E-1,-4.375197E-1,9.6669275E-1,-1.13649026E-1,9.6669275E-1,2.0863435E0,-1.0378102E0,2.8582873E0,-1.4483947E-1,-6.1394334E-1,2.0863435E0,9.586716E-2,2.319327E0,-5.0851697E-1,5.1872194E-2,3.9102736E0,7.347879E-1,1.0910823E-1,-1.2894726E-1,7.092028E-2,9.6669275E-1,3.484316E-1,2.319327E0,7.8775354E-2,-6.958706E-1,8.66264E-2,-6.9115734E-1,9.112395E-2,1.0969677E-1,-7.0021175E-2,3.7414688E-3,-6.1394334E-1,9.6669275E-1,3.9102736E0,-6.848037E-2,-4.886598E-2,2.792119E-1,9.936233E-2,-1.13649026E-1,8.0168165E-2,1.9678471E0,3.5388236E0,6.392545E-2,3.5758883E-2,-3.400902E-2,1.4091162E-2,-1.5093934E-2,4.2788718E-2,-1.4674923E-2,1.3320822E-2,-5.555019E-2,-2.8095413E-2,-1.0027106E-2,-6.668959E-2,-3.69221E-2,3.4379058E-2,-5.6962155E-2,-7.499492E-3,1.9055719E-2,-2.8574482E-2,5.871144E-2,1.51128275E-2,-1.4020766E-2,4.8375282E-2,4.6771313E-3,3.867823E-2],"split_indices":[20,1,2,11,1,11,15,1,14,1,21,15,0,12,25,0,10,7,0,21,0,11,1,12,0,1,0,1,0,21,0,22,21,11,10,0,0,1,22,1,0,13,20,0,22,0,0,0,0,0,0,0,0,0,0,0,0,0,0,0,0,0,0,0,0,0,0],"split_type":[0,0,0,0,0,0,0,0,0,0,0,0,0,0,0,0,0,0,0,0,0,0,0,0,0,0,0,0,0,0,0,0,0,0,0,0,0,0,0,0,0,0,0,0,0,0,0,0,0,0,0,0,0,0,0,0,0,0,0,0,0,0,0,0,0,0,0],"sum_hessian":[9.530339E3,7.520998E3,2.0093408E3,2.054127E3,5.466871E3,8.0757477E2,1.2017661E3,5.0699985E2,1.5471272E3,2.2320298E3,3.2348413E3,2.026628E2,6.04912E2,9.2244214E2,2.793239E2,4.279624E1,4.642036E2,1.4573218E3,8.980542E1,2.185388E3,4.66418E1,1.1220486E3,2.1127927E3,1.6235817E2,4.0304626E1,7.006486E2,2.2179355E2,1.017114E2,1.7761252E2,3.176314E2,1.4657219E2,5.6115466E2,8.961671E2,9.3858624E2,1.2468018E3,8.156527E2,3.063959E2,1.0870312E3,1.0257615E3,1.2662112E2,3.5737057E1,9.14625E1,6.091861E2,5.5876537E1,4.5834866E1,1.9757195E2,1.2005948E2,6.2720207E1,4.9843445E2,2.2176698E2,6.7440015E2,4.5494913E2,4.8363712E2,1.175757E3,7.104486E1,1.0227888E3,6.424242E1,9.98029E2,2.7732477E1,5.185331E1,7.476781E1,6.1847088E1,2.9615412E1,5.810221E2,2.8164003E1,2.534895E1,2.0485914E1],"tree_param":{"num_deleted":"0","num_feature":"28","num_nodes":"67","size_leaf_vector":"1"}},{"base_weights":[-1.2281455E-1,-3.187914E-1,9.656097E-1,-5.7025796E-1,6.4096284E-1,-2.058766E-2,9.219622E-2,-3.5851216E-1,-7.313021E-1,1.060226E0,3.5774177E-1,-3.432472E-1,3.500929E-1,-4.40497E-1,3.9429125E-1,-7.575563E-1,1.3768828E-1,3.3976138E-1,9.153652E-2,1.7248537E-1,7.96744E-2,2.6573833E-2,-4.4924372E-1,1.371216E-1,6.935115E-2,-6.108951E-1,-2.3692057E-1,-3.0409494E-1,1.1280849E0,-8.570853E-1,-6.0512894E-1,-4.857701E-2,7.925427E-2,9.0647526E-2,7.055488E-2,-1.6268094E-1,9.9323285E-1,-3.0179098E-1,-5.386105E-2,-9.28169E-2,5.3204034E-2,-2.554474E-2,-5.167097E-2,-1.2638925E-2,-6.184253E-2,3.191299E-2,-3.316208E-2,1.1646862E-1,1.2632065E-2,-6.0971133E-2,-2.6855748E-2,-4.701631E-2,-1.0349831E-2,-1.5558815E-2,7.03038E-2,-2.0008584E-2,2.323955E-2,3.6863197E-2,8.248191E-2,-2.8520454E-2,-5.6481683E-3,2.832585E-2,-2.4870811E-2],"categories":[],"categories_nodes":[],"categories_segments":[],"categories_sizes":[],"default_left":[0,0,0,0,0,0,0,0,0,0,0,0,0,0,0,0,0,0,0,0,0,0,0,0,0,0,0,0,0,0,0,0,0,0,0,0,0,0,0,0,0,0,0,0,0,0,0,0,0,0,0,0,0,0,0,0,0,0,0,0,0,0,0],"id":15,"left_children":[1,3,5,7,9,11,-1,13,15,17,19,21,23,25,27,29,31,33,-1,35,-1,-1,37,39,-1,41,43,45,47,49,51,-1,-1,53,-1,55,57,59,-1,61,-1,-1,-1,-1,-1,-1,-1,-1,-1,-1,-1,-1,-1,-1,-1,-1,-1,-1,-1,-1,-1,-1,-1],"loss_changes":[1.9959791E3,1.9175342E3,4.9275916E2,2.1020947E2,1.9003448E2,4.73762E1,0E0,1.7141785E2,8.3040405E1,1.0906879E2,1.4117326E2,1.840503E1,2.2171114E1,8.34574E1,1.4562164E2,4.4750366E1,1.0322075E2,2.8360916E1,0E0,2.3017763E2,0E0,0E0,5.1849174E0,2.330426E1,0E0,3.7253937E1,3.918515E1,2.1729458E1,6.3768417E1,6.623169E0,4.004425E1,0E0,0E0,4.568763E1,0E0,3.720259E1,1.1580704E1,2.6773453E0,0E0,1.7379707E1,0E0,0E0,0E0,0E0,0E0,0E0,0E0,0E0,0E0,0E0,0E0,0E0,0E0,0E0,0E0,0E0,0E0,0E0,0E0,0E0,0E0,0E0,0E0],"parents":[2147483647,0,0,1,1,2,2,3,3,4,4,5,5,7,7,8,8,9,9,10,10,11,11,12,12,13,13,14,14,15,15,16,16,17,17,19,19,22,22,23,23,25,25,26,26,27,27,28,28,29,29,30,30,33,33,35,35,36,36,37,37,39,39],"right_children":[2,4,6,8,10,12,-1,14,16,18,20,22,24,26,28,30,32,34,-1,36,-1,-1,38,40,-1,42,44,46,48,50,52,-1,-1,54,-1,56,58,60,-1,62,-1,-1,-1,-1,-1,-1,-1,-1,-1,-1,-1,-1,-1,-1,-1,-1,-1,-1,-1,-1,-1,-1,-1],"split_conditions":[1.514522E0,1.7125311E0,9.6669275E-1,-2.8215867E-1,-4.375197E-1,7.9938495E-1,9.219622E-2,2.8582873E0,8.9139275E-2,9.6669275E-1,2.319327E0,-9.805934E-1,2.319327E0,9.676663E-2,9.6669275E-1,1.0641571E-1,2.0863435E0,2.0863435E0,9.153652E-2,2.0863435E0,7.96744E-2,2.6573833E-2,2.1930099E0,2.0863435E0,6.935115E-2,7.347879E-1,3.9102736E0,-4.3089473E-1,-4.861156E-1,1.1028954E0,2.8582873E0,-4.857701E-2,7.925427E-2,2.319327E0,7.055488E-2,2.8582873E0,-5.0851697E-1,-3.188781E-2,-5.386105E-2,-4.375197E-1,5.3204034E-2,-2.554474E-2,-5.167097E-2,-1.2638925E-2,-6.184253E-2,3.191299E-2,-3.316208E-2,1.1646862E-1,1.2632065E-2,-6.0971133E-2,-2.6855748E-2,-4.701631E-2,-1.0349831E-2,-1.5558815E-2,7.03038E-2,-2.0008584E-2,2.323955E-2,3.6863197E-2,8.248191E-2,-2.8520454E-2,-5.6481683E-3,2.832585E-2,-2.4870811E-2],"split_indices":[5,20,11,25,2,20,0,14,22,11,12,25,12,4,11,4,15,15,0,15,0,0,17,15,0,7,10,0,25,5,14,0,0,12,0,14,25,4,0,2,0,0,0,0,0,0,0,0,0,0,0,0,0,0,0,0,0,0,0,0,0,0,0],"split_type":[0,0,0,0,0,0,0,0,0,0,0,0,0,0,0,0,0,0,0,0,0,0,0,0,0,0,0,0,0,0,0,0,0,0,0,0,0,0,0,0,0,0,0,0,0,0,0,0,0,0,0,0,0,0,0,0,0,0,0,0,0,0,0],"sum_hessian":[9.331068E3,7.915282E3,1.4157864E3,6.276642E3,1.6386403E3,3.721107E2,1.0436757E3,2.730897E3,3.545745E3,6.4595526E2,9.9268494E2,2.008587E2,1.7125198E2,2.4683818E3,2.6251508E2,3.444372E3,1.0137286E2,1.721136E2,4.7384167E2,8.146774E2,1.7800748E2,2.0548313E1,1.8031038E2,1.4052986E2,3.072211E1,1.3279423E3,1.1404396E3,1.3740474E2,1.25110344E2,2.0462301E3,1.3981421E3,5.6615902E1,4.475696E1,1.3628142E2,3.5832188E1,5.844218E2,2.302556E2,1.4138617E2,3.8924217E1,1.0884962E2,3.1680252E1,4.668335E2,8.6110876E2,1.0637451E3,7.6694435E1,2.0202356E1,1.1720238E2,7.36672E1,5.144315E1,1.9832671E3,6.296296E1,1.2170471E3,1.8109502E2,1.07440094E2,2.8841314E1,4.7392337E2,1.1049848E2,7.92825E1,1.509731E2,8.605176E1,5.5334408E1,3.4002018E1,7.4847595E1],"tree_param":{"num_deleted":"0","num_feature":"28","num_nodes":"63","size_leaf_vector":"1"}},{"base_weights":[-1.1733334E-1,-3.0541036E-1,9.273248E-1,-5.4893124E-1,6.106302E-1,1.1533383E0,3.7523568E-2,-8.551626E-2,-6.4162225E-1,1.0179738E0,3.3944556E-1,8.961823E-2,-3.0981657E-1,-3.019656E-1,4.073922E-1,6.989288E-1,-2.1024337E-1,-7.255514E-1,-3.8362002E-1,1.0904448E0,-2.0653145E-2,1.6369426E-1,7.647279E-2,4.5410264E-2,-6.632643E-1,1.0305271E-2,-4.2542854E-1,5.8662754E-1,-1.7453028E-2,-1.8784589E-1,7.722735E-2,-3.0650973E-1,6.691911E-1,-6.583E-1,-7.2242595E-2,-4.4810092E-1,6.455027E-2,8.798487E-2,4.800505E-1,-1.5213312E-1,9.4306934E-1,-5.5120688E-2,-1.091023E-2,-2.7990445E-1,-4.9731236E-2,7.286007E-1,-1.2139042E-3,-2.2242067E-2,-0E0,-2.6660884E-2,3.0109644E-2,2.7218286E-3,5.8724936E-2,-4.7627207E-2,1.9369407E-2,-3.3567782E-2,3.2225985E-2,5.106613E-2,-1.8079171E-2,1.6118843E-2,8.2038596E-2,3.631166E-2,-1.7874485E-2,3.4770455E-2,7.857003E-2,-3.1562373E-2,-7.451994E-3,1.7289015E-2,6.5405734E-2],"categories":[],"categories_nodes":[],"categories_segments":[],"categories_sizes":[],"default_left":[0,0,0,0,0,0,0,0,0,0,0,0,0,0,0,0,0,0,0,0,0,0,0,0,0,0,0,0,0,0,0,0,0,0,0,0,0,0,0,0,0,0,0,0,0,0,0,0,0,0,0,0,0,0,0,0,0,0,0,0,0,0,0,0,0,0,0,0,0],"id":16,"left_children":[1,3,5,7,9,11,13,15,17,19,21,-1,23,25,27,29,31,33,35,37,-1,39,-1,-1,41,-1,43,45,-1,47,-1,49,51,53,-1,55,57,-1,59,61,63,-1,-1,65,-1,67,-1,-1,-1,-1,-1,-1,-1,-1,-1,-1,-1,-1,-1,-1,-1,-1,-1,-1,-1,-1,-1,-1,-1],"loss_changes":[1.7851866E3,1.7211113E3,2.770746E2,2.6013074E2,1.7360541E2,2.0656323E2,3.8509617E1,1.02092674E2,1.0533179E2,6.557263E1,1.2761727E2,0E0,3.7478065E1,9.830738E0,1.9410366E1,5.439469E1,7.8240616E1,6.814795E1,3.7512665E1,5.210614E1,0E0,2.0428845E2,0E0,0E0,2.3486404E0,0E0,1.9692459E0,1.1189671E1,0E0,1.2129184E0,0E0,4.6300385E1,8.424282E0,6.370996E1,0E0,3.3516754E1,3.878208E1,0E0,2.1247684E1,4.2095623E1,1.0651459E1,0E0,0E0,2.0500984E0,0E0,5.8069954E0,0E0,0E0,0E0,0E0,0E0,0E0,0E0,0E0,0E0,0E0,0E0,0E0,0E0,0E0,0E0,0E0,0E0,0E0,0E0,0E0,0E0,0E0,0E0],"parents":[2147483647,0,0,1,1,2,2,3,3,4,4,5,5,6,6,7,7,8,8,9,9,10,10,12,12,13,13,14,14,15,15,16,16,17,17,18,18,19,19,21,21,24,24,26,26,27,27,29,29,31,31,32,32,33,33,35,35,36,36,38,38,39,39,40,40,43,43,45,45],"right_children":[2,4,6,8,10,12,14,16,18,20,22,-1,24,26,28,30,32,34,36,38,-1,40,-1,-1,42,-1,44,46,-1,48,-1,50,52,54,-1,56,58,-1,60,62,64,-1,-1,66,-1,68,-1,-1,-1,-1,-1,-1,-1,-1,-1,-1,-1,-1,-1,-1,-1,-1,-1,-1,-1,-1,-1,-1,-1],"split_conditions":[1.514522E0,1.7125311E0,1.1762452E0,-6.958706E-1,-4.375197E-1,3.9102736E0,7.9938495E-1,-1.0378102E0,7.9938495E-1,3.9102736E0,2.319327E0,8.961823E-2,-9.684982E-1,-7.5353825E-1,1.9678471E0,-2.907753E-2,2.8582873E0,2.1930099E0,2.8582873E0,1.1762452E0,-2.0653145E-2,2.0863435E0,7.647279E-2,4.5410264E-2,3.0037893E-2,1.0305271E-2,2.1930099E0,2.2096279E0,-1.7453028E-2,-1.1117431E0,7.722735E-2,-7.143538E-1,-9.516123E-1,8.9139275E-2,-7.2242595E-2,9.936233E-2,-2.2926159E-1,8.798487E-2,2.319327E0,-6.912498E-1,-5.0851697E-1,-5.5120688E-2,-1.091023E-2,-1.1376126E-1,-4.9731236E-2,1.7125311E0,-1.2139042E-3,-2.2242067E-2,-0E0,-2.6660884E-2,3.0109644E-2,2.7218286E-3,5.8724936E-2,-4.7627207E-2,1.9369407E-2,-3.3567782E-2,3.2225985E-2,5.106613E-2,-1.8079171E-2,1.6118843E-2,8.2038596E-2,3.631166E-2,-1.7874485E-2,3.4770455E-2,7.857003E-2,-3.1562373E-2,-7.451994E-3,1.7289015E-2,6.5405734E-2],"split_indices":[5,20,8,1,2,10,20,1,20,10,12,0,1,1,13,5,14,17,14,8,0,15,0,0,22,0,17,16,0,1,0,1,25,22,0,22,1,0,12,1,25,0,0,20,0,20,0,0,0,0,0,0,0,0,0,0,0,0,0,0,0,0,0,0,0,0,0,0,0],"split_type":[0,0,0,0,0,0,0,0,0,0,0,0,0,0,0,0,0,0,0,0,0,0,0,0,0,0,0,0,0,0,0,0,0,0,0,0,0,0,0,0,0,0,0,0,0,0,0,0,0,0,0,0,0,0,0,0,0,0,0,0,0,0,0,0,0,0,0,0,0],"sum_hessian":[9.059888E3,7.6856387E3,1.3742496E3,6.07623E3,1.6094087E3,1.0921584E3,2.820912E2,1.01842126E3,5.0578086E3,6.2854486E2,9.808638E2,1.0086605E3,8.349799E1,1.4682509E2,1.352661E2,1.3103604E2,8.873852E2,3.7970046E3,1.2608038E3,5.982987E2,3.0246109E1,8.077339E2,1.7312988E2,1.9062672E1,6.443532E1,2.9433153E1,1.1739194E2,1.0844292E2,2.6823185E1,4.209741E1,8.893863E1,8.079036E2,7.948159E1,3.1436782E3,6.533266E2,1.1041732E3,1.5663072E2,4.60365E2,1.3793375E2,5.807644E2,2.2696953E2,4.5022995E1,1.9412325E1,9.566817E1,2.1723768E1,8.713733E1,2.1305588E1,1.9046928E1,2.305048E1,7.409591E2,6.694451E1,2.1088472E1,5.839312E1,3.0797856E3,6.389254E1,1.0748661E3,2.9307028E1,4.7285435E1,1.0934528E2,1.1400766E2,2.3926083E1,6.946576E1,5.112986E2,7.889486E1,1.4807466E2,3.5778748E1,5.9889423E1,3.5232147E1,5.1905186E1],"tree_param":{"num_deleted":"0","num_feature":"28","num_nodes":"69","size_leaf_vector":"1"}},{"base_weights":[-1.1198495E-1,-2.9233262E-1,8.907879E-1,-5.4496384E-1,4.2798683E-1,-1.6803402E-2,8.6376466E-2,-9.54669E-2,-6.3605213E-1,5.0094414E-1,-7.8644365E-1,6.789875E-2,-1.1254477E-1,6.5454096E-1,-2.1162039E-1,-8.602073E-1,-5.3755283E-1,8.115601E-1,2.996952E-1,-6.511303E-2,-3.9480785E-3,-3.9691362E-1,2.8978658E-1,-1.771775E-1,1.0440573E0,-3.0694836E-1,6.2794435E-1,-6.0967863E-2,-8.303133E-3,-3.6577773E-1,-6.737755E-1,3.7735862E-1,9.9965614E-1,1.4873871E-1,9.5810694E-1,-2.4557671E-1,-5.522817E-2,6.1251294E-2,6.491766E-2,-1.9632576E-2,-0E0,8.532298E-2,2.2465378E-2,-4.1248463E-2,-7.0287054E-3,4.184832E-4,6.80472E-2,-3.170215E-2,2.944703E-2,-4.907616E-2,1.2915741E-3,4.9743775E-2,1.0066409E-2,7.589504E-2,1.8063012E-3,-6.6789007E-3,5.259821E-2,3.5621677E-2,7.861332E-2,1.8009422E-2,-2.490362E-2,-1.1948998E-2,4.567861E-2],"categories":[],"categories_nodes":[],"categories_segments":[],"categories_sizes":[],"default_left":[0,0,0,0,0,0,0,0,0,0,0,0,0,0,0,0,0,0,0,0,0,0,0,0,0,0,0,0,0,0,0,0,0,0,0,0,0,0,0,0,0,0,0,0,0,0,0,0,0,0,0,0,0,0,0,0,0,0,0,0,0,0,0],"id":17,"left_children":[1,3,5,7,9,11,-1,13,15,17,19,-1,21,23,25,27,29,31,33,-1,-1,35,37,39,41,43,45,-1,-1,47,49,51,53,55,57,59,-1,61,-1,-1,-1,-1,-1,-1,-1,-1,-1,-1,-1,-1,-1,-1,-1,-1,-1,-1,-1,-1,-1,-1,-1,-1,-1],"loss_changes":[1.5947812E3,1.3626683E3,4.1705713E2,2.2529956E2,1.7685025E2,3.6081173E1,0E0,8.390717E1,9.4642334E1,1.1122284E2,1.0213188E1,0E0,4.222594E1,4.489876E1,6.858887E1,6.993164E0,7.16214E1,5.2565674E1,1.1046996E2,0E0,0E0,9.359493E0,2.0551907E1,8.739674E-1,5.072998E0,4.2565186E1,1.7623394E1,0E0,0E0,1.0108351E2,3.2817993E1,1.6337341E1,3.7909607E1,1.397542E2,6.858734E0,1.0778362E1,0E0,1.9097246E1,0E0,0E0,0E0,0E0,0E0,0E0,0E0,0E0,0E0,0E0,0E0,0E0,0E0,0E0,0E0,0E0,0E0,0E0,0E0,0E0,0E0,0E0,0E0,0E0,0E0],"parents":[2147483647,0,0,1,1,2,2,3,3,4,4,5,5,7,7,8,8,9,9,10,10,12,12,13,13,14,14,15,15,16,16,17,17,18,18,21,21,22,22,23,23,24,24,25,25,26,26,29,29,30,30,31,31,32,32,33,33,34,34,35,35,37,37],"right_children":[2,4,6,8,10,12,-1,14,16,18,20,-1,22,24,26,28,30,32,34,-1,-1,36,38,40,42,44,46,-1,-1,48,50,52,54,56,58,60,-1,62,-1,-1,-1,-1,-1,-1,-1,-1,-1,-1,-1,-1,-1,-1,-1,-1,-1,-1,-1,-1,-1,-1,-1,-1,-1],"split_conditions":[1.514522E0,1.0230786E0,9.6669275E-1,-6.912498E-1,3.9102736E0,-1.0008438E0,8.6376466E-2,-1.0378102E0,-9.356852E-1,-4.375197E-1,1.7821398E0,6.789875E-2,7.23957E-1,-2.907753E-2,2.8582873E0,8.1633374E-2,-1.13649026E-1,1.2900366E0,2.319327E0,-6.511303E-2,-3.9480785E-3,3.9102736E0,2.319327E0,2.5815796E-2,7.347879E-1,-8.29874E-1,9.6669275E-1,-6.0967863E-2,-8.303133E-3,2.8582873E0,8.9139275E-2,-5.757296E-1,1.0184485E0,2.0863435E0,1.2900366E0,-6.9016534E-1,-5.522817E-2,2.0863435E0,6.491766E-2,-1.9632576E-2,-0E0,8.532298E-2,2.2465378E-2,-4.1248463E-2,-7.0287054E-3,4.184832E-4,6.80472E-2,-3.170215E-2,2.944703E-2,-4.907616E-2,1.2915741E-3,4.9743775E-2,1.0066409E-2,7.589504E-2,1.8063012E-3,-6.6789007E-3,5.259821E-2,3.5621677E-2,7.861332E-2,1.8009422E-2,-2.490362E-2,-1.1948998E-2,4.567861E-2],"split_indices":[5,4,11,1,10,1,0,1,4,2,4,0,4,5,14,22,1,4,12,0,0,10,12,22,7,1,11,0,0,14,22,1,1,15,4,2,0,15,0,0,0,0,0,0,0,0,0,0,0,0,0,0,0,0,0,0,0,0,0,0,0,0,0],"split_type":[0,0,0,0,0,0,0,0,0,0,0,0,0,0,0,0,0,0,0,0,0,0,0,0,0,0,0,0,0,0,0,0,0,0,0,0,0,0,0,0,0,0,0,0,0,0,0,0,0,0,0,0,0,0,0,0,0,0,0,0,0,0,0],"sum_hessian":[8.792394E3,7.4601855E3,1.3322078E3,5.5263037E3,1.9338817E3,3.658797E2,9.663281E2,9.3717004E2,4.589134E3,1.8317145E3,1.0216732E2,2.1806E1,3.440737E2,1.170624E2,8.2010767E2,1.3695336E3,3.2196003E3,7.0391E2,1.1278044E3,8.167409E1,2.049323E1,2.0314053E2,1.4093317E2,3.860501E1,7.845739E1,7.443901E2,7.5717575E1,1.3497646E3,1.9768904E1,1.4467852E3,1.7728152E3,2.2527507E2,4.7863492E2,9.3065857E2,1.9714587E2,1.6233113E2,4.08094E1,1.1450068E2,2.643248E1,1.9433626E1,1.9171383E1,5.5653973E1,2.280342E1,3.0402386E2,4.403662E2,3.224257E1,4.3475006E1,1.309487E3,1.3729805E2,1.7101709E3,6.264429E1,8.127645E1,1.4399863E2,4.3914157E2,3.9493362E1,6.680013E2,2.626573E2,6.7078064E1,1.3006781E2,2.4521688E1,1.3780945E2,8.7134575E1,2.7366108E1],"tree_param":{"num_deleted":"0","num_feature":"28","num_nodes":"63","size_leaf_vector":"1"}},{"base_weights":[-1.0669064E-1,-2.7928478E-1,8.585669E-1,-5.09484E-1,5.6111187E-1,-1.2321586E-2,8.385383E-2,-1.5567097E-1,-6.2221295E-1,6.328454E-1,-6.8677956E-1,-3.031437E-1,3.062047E-1,-2.509071E-1,7.957457E-1,-7.4881136E-1,-4.4983146E-1,1.0098764E0,3.8436037E-1,-5.952265E-2,-3.7775366E-3,2.9108007E-2,-4.1310742E-1,1.1804181E-1,6.1127763E-2,5.517653E-1,-3.3628124E-1,3.0687183E-2,9.5218636E-2,-7.698639E-1,7.3699676E-2,-3.3484283E-1,-7.152112E-1,4.0148064E-1,8.3722785E-2,2.0291221E-1,8.39742E-2,-2.5655675E-1,-5.47369E-2,-8.510932E-2,4.600659E-2,-2.0164004E-2,6.9155045E-2,-2.688475E-2,5.79597E-2,-2.1278627E-2,3.3284727E-2,-5.011127E-2,-7.057603E-2,-3.601991E-2,6.004863E-2,-2.875824E-2,1.3690368E-2,-5.346718E-2,-2.0007875E-2,9.618707E-3,7.470312E-2,-6.5206955E-3,6.520593E-2,-8.976971E-3,-4.2683177E-2,2.6406683E-2,-2.3523238E-2],"categories":[],"categories_nodes":[],"categories_segments":[],"categories_sizes":[],"default_left":[0,0,0,0,0,0,0,0,0,0,0,0,0,0,0,0,0,0,0,0,0,0,0,0,0,0,0,0,0,0,0,0,0,0,0,0,0,0,0,0,0,0,0,0,0,0,0,0,0,0,0,0,0,0,0,0,0,0,0,0,0,0,0],"id":18,"left_children":[1,3,5,7,9,11,-1,13,15,17,19,21,23,25,27,29,31,33,35,-1,-1,-1,37,39,-1,41,43,45,-1,47,49,51,53,55,-1,57,-1,59,-1,61,-1,-1,-1,-1,-1,-1,-1,-1,-1,-1,-1,-1,-1,-1,-1,-1,-1,-1,-1,-1,-1,-1,-1],"loss_changes":[1.4293989E3,1.411125E3,3.8320972E2,2.2617444E2,1.4564883E2,3.5762955E1,0E0,1.2871176E2,8.928052E1,1.3364465E2,7.7983093E0,1.8102531E1,1.7225882E1,8.9916046E1,5.368908E1,4.4248657E1,5.306073E1,5.786438E1,1.313345E2,0E0,0E0,0E0,7.1078606E0,1.7893074E1,0E0,5.027835E1,6.718901E1,1.1948377E1,0E0,2.131189E1,3.8493214E1,5.4075928E1,7.497467E0,2.4172747E1,0E0,1.6686552E2,0E0,5.04494E0,0E0,1.5322975E1,0E0,0E0,0E0,0E0,0E0,0E0,0E0,0E0,0E0,0E0,0E0,0E0,0E0,0E0,0E0,0E0,0E0,0E0,0E0,0E0,0E0,0E0,0E0],"parents":[2147483647,0,0,1,1,2,2,3,3,4,4,5,5,7,7,8,8,9,9,10,10,11,11,12,12,13,13,14,14,15,15,16,16,17,17,18,18,22,22,23,23,25,25,26,26,27,27,29,29,30,30,31,31,32,32,33,33,35,35,37,37,39,39],"right_children":[2,4,6,8,10,12,-1,14,16,18,20,22,24,26,28,30,32,34,36,-1,-1,-1,38,40,-1,42,44,46,-1,48,50,52,54,56,-1,58,-1,60,-1,62,-1,-1,-1,-1,-1,-1,-1,-1,-1,-1,-1,-1,-1,-1,-1,-1,-1,-1,-1,-1,-1,-1,-1],"split_conditions":[1.514522E0,1.7125311E0,9.6669275E-1,-5.777628E-1,3.9102736E0,7.9938495E-1,8.385383E-2,2.8582873E0,1.1934076E-1,-4.375197E-1,1.7590357E0,-9.453941E-1,2.319327E0,-1.0378102E0,9.6669275E-1,8.1633374E-2,3.484316E-1,9.6669275E-1,2.319327E0,-5.952265E-2,-3.7775366E-3,2.9108007E-2,2.1930099E0,2.0863435E0,6.1127763E-2,-2.907753E-2,-5.988337E-1,-8.1154674E-1,9.5218636E-2,2.1930099E0,2.0863435E0,2.8582873E0,4.8545563E-1,2.0863435E0,8.3722785E-2,2.0863435E0,8.39742E-2,3.9102736E0,-5.47369E-2,-4.375197E-1,4.600659E-2,-2.0164004E-2,6.9155045E-2,-2.688475E-2,5.79597E-2,-2.1278627E-2,3.3284727E-2,-5.011127E-2,-7.057603E-2,-3.601991E-2,6.004863E-2,-2.875824E-2,1.3690368E-2,-5.346718E-2,-2.0007875E-2,9.618707E-3,7.470312E-2,-6.5206955E-3,6.520593E-2,-8.976971E-3,-4.2683177E-2,2.6406683E-2,-2.3523238E-2],"split_indices":[5,20,11,1,10,20,0,14,21,2,21,1,12,1,11,22,1,11,12,0,0,0,17,15,0,5,1,25,0,17,15,14,5,15,0,15,0,10,0,2,0,0,0,0,0,0,0,0,0,0,0,0,0,0,0,0,0,0,0,0,0,0,0],"split_type":[0,0,0,0,0,0,0,0,0,0,0,0,0,0,0,0,0,0,0,0,0,0,0,0,0,0,0,0,0,0,0,0,0,0,0,0,0,0,0,0,0,0,0,0,0,0,0,0,0,0,0,0,0,0,0,0,0,0,0,0,0,0,0],"sum_hessian":[8.554145E3,7.264729E3,1.2894155E3,5.7073125E3,1.5574165E3,3.6207373E2,9.273418E2,1.3880859E3,4.3192266E3,1.4791077E3,7.830892E1,1.9121178E2,1.7086194E2,1.2707693E3,1.17316666E2,2.4638364E3,1.8553901E3,5.713674E2,9.0774023E2,5.784983E1,2.0459091E1,1.9763681E1,1.714481E2,1.4040141E2,3.0460533E1,1.1473966E2,1.1560297E3,5.57822E1,6.1534466E1,2.4042815E3,5.955473E1,1.3160549E3,5.3933527E2,1.426552E2,4.2871213E2,7.5534985E2,1.5239041E2,1.3640764E2,3.5040462E1,1.0789214E2,3.250927E1,3.971681E1,7.502286E1,1.1196635E3,3.6366234E1,3.2709248E1,2.3072952E1,1.9899214E3,4.143602E2,3.5646225E1,2.3908506E1,1.1566523E3,1.5940251E2,4.7567953E2,6.365573E1,1.1344599E2,2.9209215E1,5.4325494E2,2.1209491E2,1.13976006E2,2.2431633E1,3.4398174E1,7.349397E1],"tree_param":{"num_deleted":"0","num_feature":"28","num_nodes":"63","size_leaf_vector":"1"}},{"base_weights":[-1.0181228E-1,-2.672616E-1,8.271026E-1,-4.8947486E-1,5.3470665E-1,-1.0529828E-2,8.1529796E-2,-3.0518094E-1,-7.077735E-1,9.089853E-1,2.9419422E-1,-2.910742E-1,2.9251418E-1,-3.8364732E-1,4.196741E-1,-7.32025E-1,-1.0168801E-2,2.6672217E-1,8.120266E-2,1.4170279E-1,6.911074E-2,2.768459E-2,-3.985845E-1,1.13525525E-1,5.817456E-2,5.2618074E-1,-4.2542037E-1,1.502835E-1,1.5488794E-1,-8.267198E-1,-5.734899E-1,-4.688023E-2,7.374408E-2,4.1226942E-2,6.275049E-2,-1.2605022E-1,8.218289E-1,-2.4582475E-1,-5.358761E-2,-7.871525E-2,4.3280184E-2,-1.9271683E-2,6.6219695E-2,-3.138267E-2,6.9795094E-2,-2.741098E-2,5.327421E-2,-5.8616914E-2,-1.3956832E-2,-2.5198882E-2,-4.7055606E-2,-1.6849883E-2,6.294108E-2,3.5146207E-2,-1.5787216E-2,2.851565E-2,7.192461E-2,-8.459034E-3,-4.1680247E-2,2.4786511E-2,-2.2353763E-2],"categories":[],"categories_nodes":[],"categories_segments":[],"categories_sizes":[],"default_left":[0,0,0,0,0,0,0,0,0,0,0,0,0,0,0,0,0,0,0,0,0,0,0,0,0,0,0,0,0,0,0,0,0,0,0,0,0,0,0,0,0,0,0,0,0,0,0,0,0,0,0,0,0,0,0,0,0,0,0,0,0],"id":19,"left_children":[1,3,5,7,9,11,-1,13,15,17,19,21,23,25,27,29,31,33,-1,35,-1,-1,37,39,-1,41,43,-1,45,47,49,-1,-1,51,-1,53,55,57,-1,59,-1,-1,-1,-1,-1,-1,-1,-1,-1,-1,-1,-1,-1,-1,-1,-1,-1,-1,-1,-1,-1],"loss_changes":[1.2806302E3,1.2632603E3,3.550374E2,2.1944897E2,1.3412646E2,3.2570374E1,0E0,1.7422623E2,4.1910522E1,8.986066E1,9.797788E1,1.666899E1,1.5480288E1,1.0677774E2,1.3077759E2,2.9540894E1,7.682147E1,2.4491596E1,0E0,1.4737433E2,0E0,0E0,6.8116646E0,1.5862463E1,0E0,4.5504932E1,8.691608E1,0E0,9.428287E1,5.38916E0,1.6010345E1,0E0,0E0,3.8949547E1,0E0,3.7243046E1,1.2862274E1,4.834697E0,0E0,1.3699404E1,0E0,0E0,0E0,0E0,0E0,0E0,0E0,0E0,0E0,0E0,0E0,0E0,0E0,0E0,0E0,0E0,0E0,0E0,0E0,0E0,0E0],"parents":[2147483647,0,0,1,1,2,2,3,3,4,4,5,5,7,7,8,8,9,9,10,10,11,11,12,12,13,13,14,14,15,15,16,16,17,17,19,19,22,22,23,23,25,25,26,26,28,28,29,29,30,30,33,33,35,35,36,36,37,37,39,39],"right_children":[2,4,6,8,10,12,-1,14,16,18,20,22,24,26,28,30,32,34,-1,36,-1,-1,38,40,-1,42,44,-1,46,48,50,-1,-1,52,-1,54,56,58,-1,60,-1,-1,-1,-1,-1,-1,-1,-1,-1,-1,-1,-1,-1,-1,-1,-1,-1,-1,-1,-1,-1],"split_conditions":[1.514522E0,1.7125311E0,9.6669275E-1,-1.13649026E-1,-4.375197E-1,7.9938495E-1,8.1529796E-2,2.8582873E0,8.9139275E-2,9.6669275E-1,2.319327E0,-9.453941E-1,2.319327E0,-1.0378102E0,-5.9562653E-1,2.1577197E-1,-9.552372E-1,2.0863435E0,8.120266E-2,2.0863435E0,6.911074E-2,2.768459E-2,2.1930099E0,2.0863435E0,5.817456E-2,-2.907753E-2,-1.4483947E-1,1.502835E-1,9.6669275E-1,1.2058021E0,7.347879E-1,-4.688023E-2,7.374408E-2,2.319327E0,6.275049E-2,-6.912498E-1,-4.539103E-1,3.9102736E0,-5.358761E-2,-4.375197E-1,4.3280184E-2,-1.9271683E-2,6.6219695E-2,-3.138267E-2,6.9795094E-2,-2.741098E-2,5.327421E-2,-5.8616914E-2,-1.3956832E-2,-2.5198882E-2,-4.7055606E-2,-1.6849883E-2,6.294108E-2,3.5146207E-2,-1.5787216E-2,2.851565E-2,7.192461E-2,-8.459034E-3,-4.1680247E-2,2.4786511E-2,-2.2353763E-2],"split_indices":[5,20,11,1,2,20,0,14,22,11,12,1,12,1,0,4,5,15,0,15,0,0,17,15,0,5,1,0,11,5,7,0,0,12,0,1,25,10,0,2,0,0,0,0,0,0,0,0,0,0,0,0,0,0,0,0,0,0,0,0,0],"split_type":[0,0,0,0,0,0,0,0,0,0,0,0,0,0,0,0,0,0,0,0,0,0,0,0,0,0,0,0,0,0,0,0,0,0,0,0,0,0,0,0,0,0,0,0,0,0,0,0,0,0,0,0,0,0,0,0,0,0,0,0,0],"sum_hessian":[8.307027E3,7.059315E3,1.2477128E3,5.5323164E3,1.5269984E3,3.5910205E2,8.8861066E2,3.0178872E3,2.5144294E3,5.8270264E2,9.442958E2,1.8843309E2,1.7066896E2,2.7294495E3,2.8843774E2,2.4279968E3,8.6432526E1,1.707153E2,4.1198734E2,7.8663153E2,1.5766423E2,1.9932997E1,1.6850009E2,1.4029507E2,3.037389E1,1.12656944E2,2.6167925E3,2.658471E1,2.6185303E2,1.4844398E3,9.43557E2,5.6676838E1,2.975569E1,1.361869E2,3.4528393E1,5.703866E2,2.1624492E2,1.3490913E2,3.359097E1,1.0741969E2,3.2875385E1,3.9215E1,7.344195E1,2.5856843E3,3.1108301E1,1.3899731E2,1.2285572E2,1.4580544E3,2.6385336E1,3.1562607E2,6.2793097E2,1.0810976E2,2.8077154E1,6.97617E1,5.006249E2,8.458009E1,1.3166484E2,1.1323301E2,2.1676125E1,3.4843834E1,7.257586E1],"tree_param":{"num_deleted":"0","num_feature":"28","num_nodes":"61","size_leaf_vector":"1"}},{"base_weights":[-9.6677475E-2,-2.5513282E-1,7.9730046E-1,-4.696631E-1,5.110913E-1,1.0159225E0,3.9356515E-2,-2.263218E-1,-6.3130075E-1,5.8093536E-1,-6.783945E-1,7.9917E-2,-2.8811783E-1,-2.572579E-1,3.5076043E-1,-3.1843618E-1,8.035025E-1,-6.605884E-1,2.1520837E-1,9.410838E-1,3.514656E-1,-5.867831E-2,-4.4585457E-3,3.8034737E-2,-6.254524E-1,1.07832225E-2,-3.776319E-1,5.0433904E-1,-1.5375575E-2,5.0207835E-1,-3.7018794E-1,1.0388087E0,-3.678862E-2,-7.729258E-1,-4.8530686E-1,-4.3203402E-2,7.651269E-2,1.1181649E0,3.756391E-1,1.8498385E-1,7.957046E-2,-5.17087E-2,-1.1842365E-2,-3.066042E-2,-3.9641014E-3,6.1866206E-1,-0E0,-1.8414827E-2,6.347603E-2,-4.5979504E-2,-1.7306382E-2,1.2260907E-1,5.1020198E-3,-5.0600883E-2,-6.936148E-2,-3.867025E-2,-7.6435795E-3,8.003476E-2,2.611632E-2,1.0100907E-2,7.41664E-2,-5.471909E-3,5.9495483E-2,1.2855334E-2,5.733608E-2],"categories":[],"categories_nodes":[],"categories_segments":[],"categories_sizes":[],"default_left":[0,0,0,0,0,0,0,0,0,0,0,0,0,0,0,0,0,0,0,0,0,0,0,0,0,0,0,0,0,0,0,0,0,0,0,0,0,0,0,0,0,0,0,0,0,0,0,0,0,0,0,0,0,0,0,0,0,0,0,0,0,0,0,0,0],"id":20,"left_children":[1,3,5,7,9,11,13,15,17,19,21,-1,23,25,27,29,31,33,35,37,39,-1,-1,-1,41,-1,43,45,-1,47,49,51,-1,53,55,-1,-1,57,59,61,-1,-1,-1,-1,-1,63,-1,-1,-1,-1,-1,-1,-1,-1,-1,-1,-1,-1,-1,-1,-1,-1,-1,-1,-1],"loss_changes":[1.1466129E3,1.1328297E3,2.003971E2,2.0895789E2,1.29949E2,1.5678296E2,2.7622978E1,2.0821109E2,8.20387E1,1.1308487E2,7.058155E0,0E0,2.9511225E1,8.436486E0,1.4426868E1,8.698877E1,6.3450615E1,5.564795E1,9.271413E1,4.838382E1,1.1289367E2,0E0,0E0,0E0,1.2131462E0,0E0,1.5566921E0,7.44928E0,0E0,4.124655E1,6.3683655E1,1.04892136E2,0E0,1.061145E1,2.9761475E1,0E0,0E0,3.8464355E-1,2.0692673E1,1.3306403E2,0E0,0E0,0E0,0E0,0E0,5.806774E0,0E0,0E0,0E0,0E0,0E0,0E0,0E0,0E0,0E0,0E0,0E0,0E0,0E0,0E0,0E0,0E0,0E0,0E0,0E0],"parents":[2147483647,0,0,1,1,2,2,3,3,4,4,5,5,6,6,7,7,8,8,9,9,10,10,12,12,13,13,14,14,15,15,16,16,17,17,18,18,19,19,20,20,24,24,26,26,27,27,29,29,30,30,31,31,33,33,34,34,37,37,38,38,39,39,45,45],"right_children":[2,4,6,8,10,12,14,16,18,20,22,-1,24,26,28,30,32,34,36,38,40,-1,-1,-1,42,-1,44,46,-1,48,50,52,-1,54,56,-1,-1,58,60,62,-1,-1,-1,-1,-1,64,-1,-1,-1,-1,-1,-1,-1,-1,-1,-1,-1,-1,-1,-1,-1,-1,-1,-1,-1],"split_conditions":[1.514522E0,1.7125311E0,1.1762452E0,-3.4468934E-1,3.9102736E0,3.9102736E0,7.9938495E-1,2.8582873E0,8.9139275E-2,-4.375197E-1,1.7821398E0,7.9917E-2,-9.684982E-1,-7.5353825E-1,1.9678471E0,-1.0378102E0,3.9102736E0,2.1577197E-1,2.0863435E0,1.1762452E0,2.319327E0,-5.867831E-2,-4.4585457E-3,3.8034737E-2,3.0037893E-2,1.07832225E-2,1.9678471E0,2.2096279E0,-1.5375575E-2,-2.907753E-2,-6.1404914E-1,1.1762452E0,-3.678862E-2,2.1930099E0,2.8582873E0,-4.3203402E-2,7.651269E-2,9.5481193E-1,2.319327E0,2.0863435E0,7.957046E-2,-5.17087E-2,-1.1842365E-2,-3.066042E-2,-3.9641014E-3,1.7125311E0,-0E0,-1.8414827E-2,6.347603E-2,-4.5979504E-2,-1.7306382E-2,1.2260907E-1,5.1020198E-3,-5.0600883E-2,-6.936148E-2,-3.867025E-2,-7.6435795E-3,8.003476E-2,2.611632E-2,1.0100907E-2,7.41664E-2,-5.471909E-3,5.9495483E-2,1.2855334E-2,5.733608E-2],"split_indices":[5,20,8,1,10,10,20,14,22,2,4,0,1,1,13,1,10,4,15,8,12,0,0,0,22,0,13,16,0,5,4,8,0,17,14,0,0,25,12,15,0,0,0,0,0,20,0,0,0,0,0,0,0,0,0,0,0,0,0,0,0,0,0,0,0],"split_type":[0,0,0,0,0,0,0,0,0,0,0,0,0,0,0,0,0,0,0,0,0,0,0,0,0,0,0,0,0,0,0,0,0,0,0,0,0,0,0,0,0,0,0,0,0,0,0,0,0,0,0,0,0,0,0,0,0,0,0,0,0,0,0,0,0],"sum_hessian":[8.068967E3,6.86233E3,1.206637E3,5.3659116E3,1.4964185E3,9.323152E2,2.7432172E2,2.1556396E3,3.210272E3,1.420018E3,7.640048E1,8.537862E2,7.852901E1,1.3992113E2,1.344006E2,1.9871555E3,1.6848401E2,3.1066062E3,1.036659E2,5.36469E2,8.83549E2,5.6032303E1,2.0368176E1,1.972386E1,5.8805145E1,2.9062067E1,1.1085906E2,1.0834337E2,2.6057232E1,1.1055672E2,1.8765988E3,1.4598329E2,2.2500729E1,1.8648246E3,1.2417816E3,5.4423073E1,4.924283E1,3.9825E2,1.38219E2,7.41906E2,1.4164304E2,3.956055E1,1.9244596E1,8.724822E1,2.361084E1,8.743901E1,2.0904358E1,3.8736988E1,7.181973E1,5.4868555E2,1.3279132E3,7.7986145E1,6.799714E1,1.55137E3,3.134546E2,1.0494844E3,1.9229724E2,3.7893387E2,1.9316124E1,1.15109406E2,2.3109581E1,5.377479E2,2.0415805E2,3.621204E1,5.1226967E1],"tree_param":{"num_deleted":"0","num_feature":"28","num_nodes":"65","size_leaf_vector":"1"}},{"base_weights":[-9.225248E-2,-2.4395005E-1,7.6903665E-1,-4.5086244E-1,4.875191E-1,9.8768485E-1,3.753865E-2,-2.7224445E-1,-6.70077E-1,5.544581E-1,-6.54059E-1,7.7890605E-2,-2.76351E-1,-2.4434797E-1,3.298999E-1,-3.459433E-1,3.817464E-1,-8.534295E-1,-5.64316E-1,9.073625E-1,3.3326668E-1,-5.6811377E-2,-4.266884E-3,3.6189474E-2,-6.081466E-1,1.1975228E-2,-3.5382488E-1,1.3789989E-1,5.5668823E-2,4.7929877E-1,-3.8437787E-1,1.3813613E-1,1.3386492E-1,-6.0769416E-2,-1.7286956E-2,-3.2841483E-1,-6.7699665E-1,1.0871292E0,3.5654327E-1,1.7425884E-1,7.7427976E-2,-5.049976E-2,-1.1370454E-2,-2.1506308E-1,-4.5975335E-2,-6.770738E-2,4.6283763E-2,-1.7592283E-2,6.0898855E-2,-2.8516628E-2,6.7038864E-2,3.2374397E-2,-1.9051109E-2,-2.6121568E-2,2.639298E-2,-4.979758E-2,-0E0,7.786182E-2,2.5172608E-2,7.930991E-3,6.858422E-2,-5.111902E-3,5.667979E-2,-2.9237697E-2,-2.4130128E-3,2.4208704E-2,-1.8491605E-2],"categories":[],"categories_nodes":[],"categories_segments":[],"categories_sizes":[],"default_left":[0,0,0,0,0,0,0,0,0,0,0,0,0,0,0,0,0,0,0,0,0,0,0,0,0,0,0,0,0,0,0,0,0,0,0,0,0,0,0,0,0,0,0,0,0,0,0,0,0,0,0,0,0,0,0,0,0,0,0,0,0,0,0,0,0,0,0],"id":21,"left_children":[1,3,5,7,9,11,13,15,17,19,21,-1,23,25,27,29,31,33,35,37,39,-1,-1,-1,41,-1,43,45,-1,47,49,-1,51,-1,-1,53,55,57,59,61,-1,-1,-1,63,-1,65,-1,-1,-1,-1,-1,-1,-1,-1,-1,-1,-1,-1,-1,-1,-1,-1,-1,-1,-1,-1,-1],"loss_changes":[1.0276777E3,1.0146074E3,1.869101E2,2.0123975E2,1.1727722E2,1.4500507E2,2.4504698E1,1.4126453E2,3.803772E1,1.0476285E2,6.5464897E0,0E0,2.7261654E1,7.725543E0,1.0802657E1,8.498981E1,1.1197325E2,2.816162E0,3.6683838E1,4.66243E1,1.0473802E2,0E0,0E0,0E0,1.1660805E0,0E0,2.6501055E0,1.397189E1,0E0,3.7434418E1,7.8535736E1,0E0,3.7714333E1,0E0,0E0,1.7703651E1,2.2199707E1,3.3059692E-1,2.030564E1,1.1863239E2,0E0,0E0,0E0,3.2195783E0,0E0,8.724065E0,0E0,0E0,0E0,0E0,0E0,0E0,0E0,0E0,0E0,0E0,0E0,0E0,0E0,0E0,0E0,0E0,0E0,0E0,0E0,0E0,0E0],"parents":[2147483647,0,0,1,1,2,2,3,3,4,4,5,5,6,6,7,7,8,8,9,9,10,10,12,12,13,13,14,14,15,15,16,16,17,17,18,18,19,19,20,20,24,24,26,26,27,27,29,29,30,30,32,32,35,35,36,36,37,37,38,38,39,39,43,43,45,45],"right_children":[2,4,6,8,10,12,14,16,18,20,22,-1,24,26,28,30,32,34,36,38,40,-1,-1,-1,42,-1,44,46,-1,48,50,-1,52,-1,-1,54,56,58,60,62,-1,-1,-1,64,-1,66,-1,-1,-1,-1,-1,-1,-1,-1,-1,-1,-1,-1,-1,-1,-1,-1,-1,-1,-1,-1,-1],"split_conditions":[1.514522E0,1.7125311E0,1.1762452E0,-1.13649026E-1,3.9102736E0,3.9102736E0,7.9938495E-1,2.8582873E0,-6.011837E-1,-4.375197E-1,1.7821398E0,7.7890605E-2,-9.684982E-1,-7.790451E-1,2.319327E0,-1.0378102E0,-5.9562653E-1,7.534721E-2,7.347879E-1,1.1762452E0,2.319327E0,-5.6811377E-2,-4.266884E-3,3.6189474E-2,3.0037893E-2,1.1975228E-2,2.1930099E0,2.0863435E0,5.5668823E-2,-2.907753E-2,-1.4483947E-1,1.3813613E-1,-3.4468934E-1,-6.0769416E-2,-1.7286956E-2,9.936233E-2,9.999888E-1,9.5481193E-1,2.0863435E0,2.0863435E0,7.7427976E-2,-5.049976E-2,-1.1370454E-2,-1.1376126E-1,-4.5975335E-2,-4.375197E-1,4.6283763E-2,-1.7592283E-2,6.0898855E-2,-2.8516628E-2,6.7038864E-2,3.2374397E-2,-1.9051109E-2,-2.6121568E-2,2.639298E-2,-4.979758E-2,-0E0,7.786182E-2,2.5172608E-2,7.930991E-3,6.858422E-2,-5.111902E-3,5.667979E-2,-2.9237697E-2,-2.4130128E-3,2.4208704E-2,-1.8491605E-2],"split_indices":[5,20,8,1,10,10,20,14,4,2,4,0,1,1,12,1,0,22,7,8,12,0,0,0,22,0,17,15,0,5,1,0,1,0,0,22,5,25,15,15,0,0,0,20,0,2,0,0,0,0,0,0,0,0,0,0,0,0,0,0,0,0,0,0,0,0,0],"split_type":[0,0,0,0,0,0,0,0,0,0,0,0,0,0,0,0,0,0,0,0,0,0,0,0,0,0,0,0,0,0,0,0,0,0,0,0,0,0,0,0,0,0,0,0,0,0,0,0,0,0,0,0,0,0,0,0,0,0,0,0,0,0,0,0,0,0,0],"sum_hessian":[7.8403423E3,6.6745293E3,1.1658127E3,5.207455E3,1.4670743E3,8.9324725E2,2.7256552E2,2.8867612E3,2.3206938E3,1.3924713E3,7.4603004E1,8.162169E2,7.7030365E1,1.3803056E2,1.3453497E2,2.6008503E3,2.8591092E2,8.1444495E2,1.5062489E3,5.2041595E2,8.720554E2,5.4272392E1,2.0330616E1,1.9881521E1,5.714884E1,2.550016E1,1.125304E2,1.0767898E2,2.6855993E1,1.084575E2,2.4923928E3,2.681249E1,2.5909842E2,7.908095E2,2.3635492E1,5.049554E2,1.00129346E3,3.8218552E2,1.3823042E2,7.3616425E2,1.3589117E2,3.8009537E1,1.9139303E1,9.342336E1,1.9107042E1,8.336671E1,2.431227E1,3.828181E1,7.017568E1,2.4607812E3,3.1611578E1,1.4373976E2,1.1535867E2,4.819463E2,2.3009125E1,9.534596E2,4.7833862E1,3.630929E2,1.9092604E1,1.1065626E2,2.7574175E1,5.361485E2,2.0001576E2,3.4108013E1,5.9315346E1,2.2246298E1,6.1120407E1],"tree_param":{"num_deleted":"0","num_feature":"28","num_nodes":"67","size_leaf_vector":"1"}},{"base_weights":[-8.75942E-2,-2.3259453E-1,7.4220157E-1,-4.3164432E-1,4.6513602E-1,9.609211E-1,3.6527023E-2,-2.5732455E-1,-6.499256E-1,8.177911E-1,2.4959981E-1,7.5984575E-2,-2.6515666E-1,-2.3529007E-1,3.1676447E-1,-3.285727E-1,3.6029333E-1,-8.381781E-1,-5.4334885E-1,8.934205E-1,-5.655277E-4,1.1867969E-1,6.2277276E-2,3.4450646E-2,-5.9124714E-1,9.741771E-3,-3.4984884E-1,1.33537E-1,5.321533E-2,-4.9718454E-1,-1.3921782E-1,1.3067123E-1,1.245217E-1,-5.9731808E-2,-1.66137E-2,-3.1165153E-1,-6.560993E-1,9.582976E-1,-1.4650073E-2,4.421228E-3,-7.61696E-3,-1.0469947E-1,7.103457E-1,-4.931201E-2,-1.0917066E-2,-3.8680476E-1,-4.8016845E-3,-6.1816905E-2,4.390458E-2,-1.6387863E-2,-4.441983E-2,-5.6498884E-3,-6.084701E-2,2.9902942E-2,-1.8081473E-2,-2.4877056E-2,2.5022602E-2,-4.8352446E-2,-0E0,7.5970806E-2,3.4190062E-2,2.0360325E-2,-1.7888144E-2,2.1636695E-2,6.560199E-2,-3.141932E-2,-7.604418E-3,2.2927035E-2,-1.7556999E-2],"categories":[],"categories_nodes":[],"categories_segments":[],"categories_sizes":[],"default_left":[0,0,0,0,0,0,0,0,0,0,0,0,0,0,0,0,0,0,0,0,0,0,0,0,0,0,0,0,0,0,0,0,0,0,0,0,0,0,0,0,0,0,0,0,0,0,0,0,0,0,0,0,0,0,0,0,0,0,0,0,0,0,0,0,0,0,0,0,0],"id":22,"left_children":[1,3,5,7,9,11,13,15,17,19,21,-1,23,25,27,29,31,33,35,37,39,41,-1,-1,43,-1,45,47,-1,49,51,-1,53,-1,-1,55,57,59,-1,-1,-1,61,63,-1,-1,65,-1,67,-1,-1,-1,-1,-1,-1,-1,-1,-1,-1,-1,-1,-1,-1,-1,-1,-1,-1,-1,-1,-1],"loss_changes":[9.206179E2,9.0683057E2,1.7423248E2,1.9016302E2,1.0670853E2,1.3437415E2,2.2519703E1,1.26519196E2,3.81474E1,3.451007E1,7.452931E1,0E0,2.518803E1,7.165682E0,9.728427E0,8.017868E1,1.0093942E2,2.8172607E0,3.4966064E1,3.8782257E1,5.1803726E-1,1.0429672E2,0E0,0E0,1.1186085E0,0E0,4.6717358E-1,1.2523259E1,0E0,4.5608093E1,5.0509705E1,0E0,3.2794655E1,0E0,0E0,1.6085186E1,2.0867126E1,1.9920563E1,0E0,0E0,0E0,3.4925606E1,1.4813248E1,0E0,0E0,5.574846E-1,0E0,7.866756E0,0E0,0E0,0E0,0E0,0E0,0E0,0E0,0E0,0E0,0E0,0E0,0E0,0E0,0E0,0E0,0E0,0E0,0E0,0E0,0E0,0E0],"parents":[2147483647,0,0,1,1,2,2,3,3,4,4,5,5,6,6,7,7,8,8,9,9,10,10,12,12,13,13,14,14,15,15,16,16,17,17,18,18,19,19,20,20,21,21,24,24,26,26,27,27,29,29,30,30,32,32,35,35,36,36,37,37,41,41,42,42,45,45,47,47],"right_children":[2,4,6,8,10,12,14,16,18,20,22,-1,24,26,28,30,32,34,36,38,40,42,-1,-1,44,-1,46,48,-1,50,52,-1,54,-1,-1,56,58,60,-1,-1,-1,62,64,-1,-1,66,-1,68,-1,-1,-1,-1,-1,-1,-1,-1,-1,-1,-1,-1,-1,-1,-1,-1,-1,-1,-1,-1,-1],"split_conditions":[1.514522E0,